{"learner":{"attributes":{"scikit_learn":"{\"_estimator_type\": \"classifier\"}"},"feature_names":["sender_bank","sender_lat","sender_lng","receiver_bank","receiver_lat","receiver_lng","amount","payment_rail","ewallet_provider","merchant","merchant_category","channel","device_type","device_brand","is_new_device","account_age_days","is_velocity_anomaly","is_geo_mismatch","is_off_hours","is_high_value_for_rail","is_suspicious_ip","is_risky_merchant","is_new_account","has_failed_attempts","is_device_mismatch","is_sim_swap","is_unusual_beneficiary","velocity_count","geo_distance_km"],"feature_types":["int","float","float","int","float","float","float","int","int","int","int","int","int","int","int","float","int","int","int","int","int","int","int","int","int","int","int","float","float"],"gradient_booster":{"model":{"cats":{"enc":[],"feature_segments":[],"sorted_idx":[]},"gbtree_model_param":{"num_parallel_tree":"1","num_trees":"200"},"iteration_indptr":[0,1,2,3,4,5,6,7,8,9,10,11,12,13,14,15,16,17,18,19,20,21,22,23,24,25,26,27,28,29,30,31,32,33,34,35,36,37,38,39,40,41,42,43,44,45,46,47,48,49,50,51,52,53,54,55,56,57,58,59,60,61,62,63,64,65,66,67,68,69,70,71,72,73,74,75,76,77,78,79,80,81,82,83,84,85,86,87,88,89,90,91,92,93,94,95,96,97,98,99,100,101,102,103,104,105,106,107,108,109,110,111,112,113,114,115,116,117,118,119,120,121,122,123,124,125,126,127,128,129,130,131,132,133,134,135,136,137,138,139,140,141,142,143,144,145,146,147,148,149,150,151,152,153,154,155,156,157,158,159,160,161,162,163,164,165,166,167,168,169,170,171,172,173,174,175,176,177,178,179,180,181,182,183,184,185,186,187,188,189,190,191,192,193,194,195,196,197,198,199,200],"tree_info":[0,0,0,0,0,0,0,0,0,0,0,0,0,0,0,0,0,0,0,0,0,0,0,0,0,0,0,0,0,0,0,0,0,0,0,0,0,0,0,0,0,0,0,0,0,0,0,0,0,0,0,0,0,0,0,0,0,0,0,0,0,0,0,0,0,0,0,0,0,0,0,0,0,0,0,0,0,0,0,0,0,0,0,0,0,0,0,0,0,0,0,0,0,0,0,0,0,0,0,0,0,0,0,0,0,0,0,0,0,0,0,0,0,0,0,0,0,0,0,0,0,0,0,0,0,0,0,0,0,0,0,0,0,0,0,0,0,0,0,0,0,0,0,0,0,0,0,0,0,0,0,0,0,0,0,0,0,0,0,0,0,0,0,0,0,0,0,0,0,0,0,0,0,0,0,0,0,0,0,0,0,0,0,0,0,0,0,0,0,0,0,0,0,0,0,0,0,0,0,0],"trees":[{"base_weights":[-0E0,-1.5393558E0,1.9998723E-1,-1.8094281E0,1.9986142E-1,-1.8838649E0,1.9944942E-1,-1.9369019E0,1.992024E-1,-1.9623696E0,-3.9933166E-1,-1.9809178E-1,-1.21146135E-1,-1.4725849E-1,1.494253E-1],"categories":[],"categories_nodes":[],"categories_segments":[],"categories_sizes":[],"default_left":[0,0,0,0,0,0,0,0,0,0,0,0,0,0,0],"id":0,"left_children":[1,3,-1,5,-1,7,-1,9,-1,11,13,-1,-1,-1,-1],"loss_changes":[1.10832695E5,1.9441742E4,0E0,5.3556094E3,0E0,3.814789E3,0E0,7.153828E2,0E0,2.4817188E2,6.1036487E2,0E0,0E0,0E0,0E0],"parents":[2147483647,0,0,1,1,3,3,5,5,7,7,9,9,10,10],"right_children":[2,4,-1,6,-1,8,-1,10,-1,12,14,-1,-1,-1,-1],"split_conditions":[3.0618617E-1,1E0,1.9998723E-1,1E0,1.9986142E-1,1E0,1.9944942E-1,1E0,1.992024E-1,1E0,1E0,-1.9809178E-1,-1.21146135E-1,-1.4725849E-1,1.494253E-1],"split_indices":[27,21,0,22,0,17,0,20,0,24,26,0,0,0,0],"split_type":[0,0,0,0,0,0,0,0,0,0,0,0,0,0,0],"sum_hessian":[3.6E4,2.034225E4,1.565775E4,1.89E4,1.44225E3,1.853775E4,3.6225E2,1.8288E4,2.4975E2,1.798975E4,2.9825E2,1.75545E4,4.3525E2,1.905E2,1.0775E2],"tree_param":{"num_deleted":"0","num_feature":"29","num_nodes":"15","size_leaf_vector":"1"}},{"base_weights":[2.299801E-5,-1.3992902E0,1.8186238E-1,-1.6447577E0,1.8175714E-1,-1.7124201E0,1.8141238E-1,-1.7606338E0,1.8120566E-1,-1.7839065E0,-3.6142713E-1,-1.8009567E-1,-1.0680121E-1,-1.3335256E-1,1.353937E-1],"categories":[],"categories_nodes":[],"categories_segments":[],"categories_sizes":[],"default_left":[0,0,0,0,0,0,0,0,0,0,0,0,0,0,0],"id":1,"left_children":[1,3,-1,5,-1,7,-1,9,-1,11,13,-1,-1,-1,-1],"loss_changes":[9.072647E4,1.5913023E4,0E0,4.384414E3,0E0,3.1234062E3,0E0,5.892344E2,0E0,2.155625E2,4.9809048E2,0E0,0E0,0E0,0E0],"parents":[2147483647,0,0,1,1,3,3,5,5,7,7,9,9,10,10],"right_children":[2,4,-1,6,-1,8,-1,10,-1,12,14,-1,-1,-1,-1],"split_conditions":[3.0618617E-1,1E0,1.8186238E-1,1E0,1.8175714E-1,1E0,1.8141238E-1,1E0,1.8120566E-1,1E0,1E0,-1.8009567E-1,-1.0680121E-1,-1.3335256E-1,1.353937E-1],"split_indices":[27,21,0,22,0,17,0,20,0,23,26,0,0,0,0],"split_type":[0,0,0,0,0,0,0,0,0,0,0,0,0,0,0],"sum_hessian":[3.564982E4,2.014759E4,1.550223E4,1.8719646E4,1.4279429E3,1.8360977E4,3.5867117E2,1.8113688E4,2.4728867E2,1.7817064E4,2.9662173E2,1.7401113E4,4.1595264E2,1.8947096E2,1.0715077E2],"tree_param":{"num_deleted":"0","num_feature":"29","num_nodes":"15","size_leaf_vector":"1"}},{"base_weights":[6.9261085E-5,-1.293135E0,1.6824861E-1,-1.5198827E0,1.6815464E-1,-1.5823894E0,1.6784689E-1,-1.6269323E0,1.6766234E-1,-1.657236E0,-5.7638353E-1,-1.6674465E-1,-8.70198E-2,-1.4502266E-1,1.3878046E-1],"categories":[],"categories_nodes":[],"categories_segments":[],"categories_sizes":[],"default_left":[0,0,0,0,0,0,0,0,0,0,0,0,0,0,0],"id":2,"left_children":[1,3,-1,5,-1,7,-1,9,-1,11,13,-1,-1,-1,-1],"loss_changes":[7.5602055E4,1.3254266E4,0E0,3.6523047E3,0E0,2.6021016E3,0E0,5.614258E2,0E0,1.3652344E2,8.547382E2,0E0,0E0,0E0,0E0],"parents":[2147483647,0,0,1,1,3,3,5,5,7,7,9,9,10,10],"right_children":[2,4,-1,6,-1,8,-1,10,-1,12,14,-1,-1,-1,-1],"split_conditions":[3.0618617E-1,1E0,1.6824861E-1,1E0,1.6815464E-1,1E0,1.6784689E-1,1E0,1.6766234E-1,1E0,1E0,-1.6674465E-1,-8.70198E-2,-1.4502266E-1,1.3878046E-1],"split_indices":[27,21,0,22,0,17,0,24,0,25,26,0,0,0,0],"split_type":[0,0,0,0,0,0,0,0,0,0,0,0,0,0,0],"sum_hessian":[3.4746242E4,1.9645664E4,1.5100579E4,1.8254676E4,1.390989E3,1.790525E4,3.494246E2,1.7664322E4,2.409282E2,1.716851E4,4.958127E2,1.6947525E4,2.2098524E2,3.4333078E2,1.5248195E2],"tree_param":{"num_deleted":"0","num_feature":"29","num_nodes":"15","size_leaf_vector":"1"}},{"base_weights":[1.1893377E-4,-1.2097964E0,1.5767847E-1,-1.421774E0,1.5759033E-1,-1.4802111E0,1.573018E-1,-1.5218563E0,1.5712883E-1,-1.55103E0,-5.295465E-1,-1.561028E-1,-7.9684205E-2,-1.342423E-1,1.2493527E-1],"categories":[],"categories_nodes":[],"categories_segments":[],"categories_sizes":[],"default_left":[0,0,0,0,0,0,0,0,0,0,0,0,0,0,0],"id":3,"left_children":[1,3,-1,5,-1,7,-1,9,-1,11,13,-1,-1,-1,-1],"loss_changes":[6.3844195E4,1.1184225E4,0E0,3.0820508E3,0E0,2.1959883E3,0E0,4.9217188E2,0E0,1.2349609E2,7.071716E2,0E0,0E0,0E0,0E0],"parents":[2147483647,0,0,1,1,3,3,5,5,7,7,9,9,10,10],"right_children":[2,4,-1,6,-1,8,-1,10,-1,12,14,-1,-1,-1,-1],"split_conditions":[3.0618617E-1,1E0,1.5767847E-1,1E0,1.5759033E-1,1E0,1.573018E-1,1E0,1.5712883E-1,1E0,1E0,-1.561028E-1,-7.9684205E-2,-1.342423E-1,1.2493527E-1],"split_indices":[27,21,0,22,0,17,0,24,0,25,26,0,0,0,0],"split_type":[0,0,0,0,0,0,0,0,0,0,0,0,0,0,0],"sum_hessian":[3.346577E4,1.8935281E4,1.4530487E4,1.7596748E4,1.3385334E3,1.7260453E4,3.3629544E2,1.7028557E4,2.3189546E2,1.6541672E4,4.8688525E2,1.6324198E4,2.1747308E2,3.3434848E2,1.5253677E2],"tree_param":{"num_deleted":"0","num_feature":"29","num_nodes":"15","size_leaf_vector":"1"}},{"base_weights":[1.742602E-4,-1.1428485E0,1.4926307E-1,-1.3429168E0,1.4917728E-1,-1.398072E0,1.4889656E-1,-1.4373807E0,1.4872836E-1,-1.4663098E0,-4.114431E-1,-1.4770107E-1,-6.92923E-2,-1.1644179E-1,1.389541E-1],"categories":[],"categories_nodes":[],"categories_segments":[],"categories_sizes":[],"default_left":[0,0,0,0,0,0,0,0,0,0,0,0,0,0,0],"id":4,"left_children":[1,3,-1,5,-1,7,-1,9,-1,11,13,-1,-1,-1,-1],"loss_changes":[5.447923E4,9.534646E3,0E0,2.6275312E3,0E0,1.8722461E3,0E0,4.8220312E2,0E0,1.2990625E2,6.0848755E2,0E0,0E0,0E0,0E0],"parents":[2147483647,0,0,1,1,3,3,5,5,7,7,9,9,10,10],"right_children":[2,4,-1,6,-1,8,-1,10,-1,12,14,-1,-1,-1,-1],"split_conditions":[3.0618617E-1,1E0,1.4926307E-1,1E0,1.4917728E-1,1E0,1.4889656E-1,1E0,1.4872836E-1,1E0,1E0,-1.4770107E-1,-6.92923E-2,-1.1644179E-1,1.389541E-1],"split_indices":[27,21,0,22,0,17,0,23,0,20,26,0,0,0,0],"split_type":[0,0,0,0,0,0,0,0,0,0,0,0,0,0,0],"sum_hessian":[3.1933553E4,1.8083918E4,1.3849636E4,1.6808035E4,1.2758821E3,1.6487424E4,3.2061053E2,1.6266322E4,2.2110283E2,1.581981E4,4.465124E2,1.560301E4,2.1680014E2,3.1511795E2,1.3139444E2],"tree_param":{"num_deleted":"0","num_feature":"29","num_nodes":"15","size_leaf_vector":"1"}},{"base_weights":[2.3545035E-4,-1.0875666E0,1.4243078E-1,-1.2777297E0,1.423449E-1,-1.330153E0,1.4206398E-1,-1.3675165E0,1.4189579E-1,-1.390356E0,-1.0090618E-1,-1.4078689E-1,-7.320601E-2,-8.577663E-2,1.5812849E-1],"categories":[],"categories_nodes":[],"categories_segments":[],"categories_sizes":[],"default_left":[0,0,0,0,0,0,0,0,0,0,0,0,0,0,0],"id":5,"left_children":[1,3,-1,5,-1,7,-1,9,-1,11,13,-1,-1,-1,-1],"loss_changes":[4.6867395E4,8.1921E3,0E0,2.2574727E3,0E0,1.6086309E3,0E0,4.4630664E2,0E0,1.7373438E2,3.507571E2,0E0,0E0,0E0,0E0],"parents":[2147483647,0,0,1,1,3,3,5,5,7,7,9,9,10,10],"right_children":[2,4,-1,6,-1,8,-1,10,-1,12,14,-1,-1,-1,-1],"split_conditions":[3.0618617E-1,1E0,1.4243078E-1,1E0,1.423449E-1,1E0,1.4206398E-1,1E0,1.4189579E-1,1E0,1E0,-1.4078689E-1,-7.320601E-2,-8.577663E-2,1.5812849E-1],"split_indices":[27,21,0,22,0,17,0,20,0,24,14,0,0,0,0],"split_type":[0,0,0,0,0,0,0,0,0,0,0,0,0,0,0],"sum_hessian":[3.0252422E4,1.7151326E4,1.3101097E4,1.5944328E4,1.2069976E3,1.5640966E4,3.0336157E2,1.5431733E4,2.0923247E2,1.5158303E4,2.7343085E2,1.4764382E4,3.93921E2,1.8892073E2,8.45101E1],"tree_param":{"num_deleted":"0","num_feature":"29","num_nodes":"15","size_leaf_vector":"1"}},{"base_weights":[3.122297E-4,-1.041244E0,1.367963E-1,-1.2230576E0,1.367085E-1,-1.306559E0,3.457675E-1,-1.3316934E0,1.3587713E-1,-9.22301E-1,1.3093823E0,-1.3391612E0,1.3351874E-1,-1.1756997E0,1.6083081E0,-1.5118866E-1,1.3730516E0,-1.3505033E-1,-5.343136E-2,-1.2965493E-1,9.715562E-2,-1.1125541E-1,1.9343328E-1,-1.1409022E-1,1.2441174E-1,1.04720466E-1,1.4738788E-1],"categories":[],"categories_nodes":[],"categories_segments":[],"categories_sizes":[],"default_left":[0,0,0,0,0,0,0,0,0,0,0,0,0,0,0,0,0,0,0,0,0,0,0,0,0,0,0],"id":6,"left_children":[1,3,-1,5,-1,7,9,11,-1,13,15,17,-1,19,21,23,25,-1,-1,-1,-1,-1,-1,-1,-1,-1,-1],"loss_changes":[4.058728E4,7.0839883E3,0E0,1.9706426E3,0E0,9.584453E2,9.308929E2,2.835332E2,0E0,2.12931E2,4.0448486E1,1.280664E2,0E0,7.903775E1,2.9098808E1,2.7624893E1,1.2082886E1,0E0,0E0,0E0,0E0,0E0,0E0,0E0,0E0,0E0,0E0],"parents":[2147483647,0,0,1,1,3,3,5,5,6,6,7,7,9,9,10,10,11,11,13,13,14,14,15,15,16,16],"right_children":[2,4,-1,6,-1,8,10,12,-1,14,16,18,-1,20,22,24,26,-1,-1,-1,-1,-1,-1,-1,-1,-1,-1],"split_conditions":[3.0618617E-1,1E0,1.367963E-1,1E0,1.367085E-1,1E0,1E0,1E0,1.3587713E-1,1E0,-2.3026197E-1,1E0,1.3351874E-1,1E0,-2.1815355E-1,1E0,1E0,-1.3505033E-1,-5.343136E-2,-1.2965493E-1,9.715562E-2,-1.1125541E-1,1.9343328E-1,-1.1409022E-1,1.2441174E-1,1.04720466E-1,1.4738788E-1],"split_indices":[27,21,0,24,0,22,26,17,0,23,6,25,0,25,6,20,14,0,0,0,0,0,0,0,0,0,0],"split_type":[0,0,0,0,0,0,0,0,0,0,0,0,0,0,0,0,0,0,0,0,0,0,0,0,0,0,0],"sum_hessian":[2.84906E4,1.6173586E4,1.2317014E4,1.5038748E4,1.1348383E3,1.4278914E4,7.598336E2,1.4146016E4,1.3289871E2,3.281058E2,4.317278E2,1.4107011E4,3.9004234E1,2.9872852E2,2.9377317E1,1.7976368E1,4.1375146E2,1.3910307E4,1.9670409E2,2.8318668E2,1.5541834E1,2.8853068E0,2.649201E1,1.0623367E1,7.3530006E0,1.00464E2,3.1328745E2],"tree_param":{"num_deleted":"0","num_feature":"29","num_nodes":"27","size_leaf_vector":"1"}},{"base_weights":[3.8671406E-4,-1.0021256E0,1.3209006E-1,-1.1768601E0,1.3199878E-1,-1.2550335E0,3.953082E-1,-1.2778983E0,1.3138627E-1,-7.8165054E-1,1.3396386E0,-1.2907159E0,1.3087313E-1,-1.0546395E0,1.792432E0,-1.8700947E-1,1.4029195E0,-1.3208996E-1,-9.655761E-2,-1.21576644E-1,1.18141316E-1,5.8487233E-2,2.1122287E-1,-1.3030288E-1,1.1516106E-1,1.6135527E-1,1.2347772E-1],"categories":[],"categories_nodes":[],"categories_segments":[],"categories_sizes":[],"default_left":[0,0,0,0,0,0,0,0,0,0,0,0,0,0,0,0,0,0,0,0,0,0,0,0,0,0,0],"id":7,"left_children":[1,3,-1,5,-1,7,9,11,-1,13,15,17,-1,19,21,23,25,-1,-1,-1,-1,-1,-1,-1,-1,-1,-1],"loss_changes":[3.5345492E4,6.1597354E3,0E0,1.7353164E3,0E0,7.9153125E2,7.4502734E2,4.4360742E2,0E0,2.1172984E2,3.6177734E1,1.2889648E2,0E0,9.8936554E1,9.964966E0,2.4923885E1,1.0654297E1,0E0,0E0,0E0,0E0,0E0,0E0,0E0,0E0,0E0,0E0],"parents":[2147483647,0,0,1,1,3,3,5,5,6,6,7,7,9,9,10,10,11,11,13,13,14,14,15,15,16,16],"right_children":[2,4,-1,6,-1,8,10,12,-1,14,16,18,-1,20,22,24,26,-1,-1,-1,-1,-1,-1,-1,-1,-1,-1],"split_conditions":[3.0618617E-1,1E0,1.3209006E-1,1E0,1.3199878E-1,1E0,1E0,1E0,1.3138627E-1,1E0,-2.3002292E-1,1E0,1.3087313E-1,1E0,1E0,1E0,-2.5773835E-1,-1.3208996E-1,-9.655761E-2,-1.21576644E-1,1.18141316E-1,5.8487233E-2,2.1122287E-1,-1.3030288E-1,1.1516106E-1,1.6135527E-1,1.2347772E-1],"split_indices":[27,21,0,23,0,17,26,22,0,20,6,26,0,24,14,17,28,0,0,0,0,0,0,0,0,0,0],"split_type":[0,0,0,0,0,0,0,0,0,0,0,0,0,0,0,0,0,0,0,0,0,0,0,0,0,0,0],"sum_hessian":[2.669739E4,1.5176149E4,1.1521241E4,1.411455E4,1.0615994E3,1.3446165E4,6.683853E2,1.3328039E4,1.1812548E2,2.9762057E2,3.7076477E2,1.3262818E4,6.5221115E1,2.6961716E2,2.8003393E1,1.4679028E1,3.5608572E2,1.2133379E4,1.1294392E3,2.5192041E2,1.7696766E1,6.455639E0,2.1547754E1,8.019603E0,6.659425E0,1.5425414E2,2.018316E2],"tree_param":{"num_deleted":"0","num_feature":"29","num_nodes":"27","size_leaf_vector":"1"}},{"base_weights":[4.6961376E-4,-9.680875E-1,1.2811741E-1,-1.1365904E0,1.2802139E-1,-1.2429748E0,-1.4119917E-2,-1.257932E0,1.2744789E-1,-9.736784E-1,1.2922797E0,-1.2630361E0,1.2480118E-1,-1.1333123E0,1.0110644E0,1.1993946E-2,1.3954556E0,-1.273242E-1,-5.728609E-2,-1.1925882E-1,9.116741E-2,2.5358213E-2,1.9144957E-1,-6.716729E-2,1.2600563E-1,1.7069753E-1,1.2548862E-1],"categories":[],"categories_nodes":[],"categories_segments":[],"categories_sizes":[],"default_left":[0,0,0,0,0,0,0,0,0,0,0,0,0,0,0,0,0,0,0,0,0,0,0,0,0,0,0],"id":8,"left_children":[1,3,-1,5,-1,7,9,11,-1,13,15,17,-1,19,21,23,25,-1,-1,-1,-1,-1,-1,-1,-1,-1,-1],"loss_changes":[3.0915842E4,5.3776807E3,0E0,1.5765039E3,0E0,4.556797E2,1.4352798E3,1.5491797E2,0E0,2.1028583E2,6.403015E1,8.3546875E1,0E0,7.520361E1,3.3504078E1,3.2560505E1,1.7505981E1,0E0,0E0,0E0,0E0,0E0,0E0,0E0,0E0,0E0,0E0],"parents":[2147483647,0,0,1,1,3,3,5,5,6,6,7,7,9,9,10,10,11,11,13,13,14,14,15,15,16,16],"right_children":[2,4,-1,6,-1,8,10,12,-1,14,16,18,-1,20,22,24,26,-1,-1,-1,-1,-1,-1,-1,-1,-1,-1],"split_conditions":[3.0618617E-1,1E0,1.2811741E-1,1E0,1.2802139E-1,1E0,1E0,1E0,1.2744789E-1,1E0,-2.2976603E-1,1E0,1.2480118E-1,1E0,1E0,1E0,-2.1951522E-1,-1.273242E-1,-5.728609E-2,-1.1925882E-1,9.116741E-2,2.5358213E-2,1.9144957E-1,-6.716729E-2,1.2600563E-1,1.7069753E-1,1.2548862E-1],"split_indices":[27,21,0,14,0,22,26,17,0,23,6,25,0,25,20,20,6,0,0,0,0,0,0,0,0,0,0],"split_type":[0,0,0,0,0,0,0,0,0,0,0,0,0,0,0,0,0,0,0,0,0,0,0,0,0,0,0],"sum_hessian":[2.4921379E4,1.4190094E4,1.0731284E4,1.3201201E4,9.888923E2,1.2058248E4,1.1429529E3,1.1987526E4,7.07224E1,6.5909686E2,4.83856E2,1.1963654E4,2.387161E1,6.104288E2,4.8668133E1,3.6168274E1,4.476877E2,1.1788491E4,1.7516344E2,5.936384E2,1.6790352E1,2.716898E1,2.1499151E1,2.366618E1,1.2502094E1,1.357361E2,3.119516E2],"tree_param":{"num_deleted":"0","num_feature":"29","num_nodes":"27","size_leaf_vector":"1"}},{"base_weights":[5.2779855E-4,-9.386146E-1,1.24734275E-1,-1.1016841E0,1.246323E-1,-1.1823304E0,3.4528825E-1,-1.2054543E0,1.2477706E-1,-7.7717996E-1,1.1934849E0,-1.2123129E0,1.2195945E-1,-1.015605E0,1.3164186E0,-1.3819954E-1,1.2547427E0,-1.2257566E-1,-3.698465E-2,-1.12317614E-1,1.2517639E-1,-1.06639855E-1,1.6083778E-1,-9.7734906E-2,1.1352998E-1,9.84823E-2,1.3451968E-1],"categories":[],"categories_nodes":[],"categories_segments":[],"categories_sizes":[],"default_left":[0,0,0,0,0,0,0,0,0,0,0,0,0,0,0,0,0,0,0,0,0,0,0,0,0,0,0],"id":9,"left_children":[1,3,-1,5,-1,7,9,11,-1,13,15,17,-1,19,21,23,25,-1,-1,-1,-1,-1,-1,-1,-1,-1,-1],"loss_changes":[2.7147932E4,4.713051E3,0E0,1.4364473E3,0E0,6.565371E2,6.2019604E2,1.9353711E2,0E0,1.4138461E2,3.0428284E1,1.2996484E2,0E0,6.297766E1,2.1973633E1,1.9502262E1,7.3345337E0,0E0,0E0,0E0,0E0,0E0,0E0,0E0,0E0,0E0,0E0],"parents":[2147483647,0,0,1,1,3,3,5,5,6,6,7,7,9,9,10,10,11,11,13,13,14,14,15,15,16,16],"right_children":[2,4,-1,6,-1,8,10,12,-1,14,16,18,-1,20,22,24,26,-1,-1,-1,-1,-1,-1,-1,-1,-1,-1],"split_conditions":[3.0618617E-1,1E0,1.24734275E-1,1E0,1.246323E-1,1E0,1E0,1E0,1.2477706E-1,1E0,-2.3026197E-1,1E0,1.2195945E-1,1E0,-2.1815355E-1,1E0,1E0,-1.2257566E-1,-3.698465E-2,-1.12317614E-1,1.2517639E-1,-1.06639855E-1,1.6083778E-1,-9.7734906E-2,1.1352998E-1,9.84823E-2,1.3451968E-1],"split_indices":[27,21,0,24,0,22,26,17,0,23,6,20,0,20,6,20,14,0,0,0,0,0,0,0,0,0,0],"split_type":[0,0,0,0,0,0,0,0,0,0,0,0,0,0,0,0,0,0,0,0,0,0,0,0,0,0,0],"sum_hessian":[2.3182799E4,1.3223024E4,9.959774E3,1.2305144E4,9.178803E2,1.1655702E4,6.4944165E2,1.1546335E4,1.09366875E2,2.7956314E2,3.6987854E2,1.15142705E4,3.206455E1,2.51443E2,2.812015E1,1.6211035E1,3.536675E2,1.1332969E4,1.8130258E2,2.4053584E2,1.090714E1,2.7798567E0,2.5340292E1,9.912149E0,6.2988844E0,9.175453E1,2.6191296E2],"tree_param":{"num_deleted":"0","num_feature":"29","num_nodes":"27","size_leaf_vector":"1"}},{"base_weights":[6.1771786E-4,-9.127539E-1,1.2183155E-1,-1.0710304E0,1.217225E-1,-1.1764482E0,1.3710894E-2,-1.1909175E0,1.2176142E-1,-8.939136E-1,1.2250148E0,-1.1958011E0,1.1801218E-1,-1.0530597E0,9.1645604E-1,2.747989E-2,1.3231933E0,-1.207446E-1,-4.632398E-2,-1.1173769E-1,8.989426E-2,2.2024639E-2,1.7398025E-1,-5.987538E-2,1.1824242E-1,1.6365595E-1,1.1787844E-1],"categories":[],"categories_nodes":[],"categories_segments":[],"categories_sizes":[],"default_left":[0,0,0,0,0,0,0,0,0,0,0,0,0,0,0,0,0,0,0,0,0,0,0,0,0,0,0],"id":10,"left_children":[1,3,-1,5,-1,7,9,11,-1,13,15,17,-1,19,21,23,25,-1,-1,-1,-1,-1,-1,-1,-1,-1,-1],"loss_changes":[2.3917035E4,4.1437217E3,0E0,1.3079736E3,0E0,3.6257617E2,1.1160194E3,1.2140527E2,0E0,1.6815839E2,5.10849E1,8.766504E1,0E0,6.8031494E1,2.6802422E1,2.527541E1,1.625531E1,0E0,0E0,0E0,0E0,0E0,0E0,0E0,0E0,0E0,0E0],"parents":[2147483647,0,0,1,1,3,3,5,5,6,6,7,7,9,9,10,10,11,11,13,13,14,14,15,15,16,16],"right_children":[2,4,-1,6,-1,8,10,12,-1,14,16,18,-1,20,22,24,26,-1,-1,-1,-1,-1,-1,-1,-1,-1,-1],"split_conditions":[3.0618617E-1,1E0,1.2183155E-1,1E0,1.217225E-1,1E0,1E0,1E0,1.2176142E-1,1E0,-2.2976603E-1,1E0,1.1801218E-1,1E0,1E0,1E0,-2.1951522E-1,-1.207446E-1,-4.632398E-2,-1.1173769E-1,8.989426E-2,2.2024639E-2,1.7398025E-1,-5.987538E-2,1.1824242E-1,1.6365595E-1,1.1787844E-1],"split_indices":[27,21,0,14,0,22,26,17,0,23,6,25,0,25,20,20,6,0,0,0,0,0,0,0,0,0,0],"split_type":[0,0,0,0,0,0,0,0,0,0,0,0,0,0,0,0,0,0,0,0,0,0,0,0,0,0,0],"sum_hessian":[2.150205E4,1.2286463E4,9.215588E3,1.1437083E4,8.493804E2,1.0423971E4,1.0131123E3,1.0361848E4,6.2122543E1,5.7930426E2,4.33808E2,1.0341044E4,2.0803888E1,5.328783E2,4.6425983E1,3.2967396E1,4.0084064E2,1.0178597E4,1.6244707E2,5.162943E2,1.6583979E1,2.5841928E1,2.0584055E1,2.1688847E1,1.1278549E1,1.2318896E2,2.7765167E2],"tree_param":{"num_deleted":"0","num_feature":"29","num_nodes":"27","size_leaf_vector":"1"}},{"base_weights":[6.8472E-4,-8.896495E-1,1.1932508E-1,-1.043588E0,1.1920779E-1,-1.120443E0,4.0585777E-1,-1.1414413E0,1.1990404E-1,-6.266246E-1,1.2350096E0,-1.1532992E0,1.1925041E-1,-8.83523E-1,1.4568535E0,-1.2672359E-1,1.2912905E0,-1.1900406E-1,-7.821528E-2,-1.0555064E-1,1.0637547E-1,1.916073E-1,9.270327E-2,-1.108812E-1,1.0338344E-1,1.5127651E-1,1.0986411E-1],"categories":[],"categories_nodes":[],"categories_segments":[],"categories_sizes":[],"default_left":[0,0,0,0,0,0,0,0,0,0,0,0,0,0,0,0,0,0,0,0,0,0,0,0,0,0,0],"id":11,"left_children":[1,3,-1,5,-1,7,9,11,-1,13,15,17,-1,19,21,23,25,-1,-1,-1,-1,-1,-1,-1,-1,-1,-1],"loss_changes":[2.1128195E4,3.652246E3,0E0,1.1822812E3,0E0,4.92083E2,4.587308E2,2.777246E2,0E0,1.2916801E2,2.2927246E1,1.3455078E2,0E0,7.25629E1,4.6964607E0,1.562074E1,1.0511871E1,0E0,0E0,0E0,0E0,0E0,0E0,0E0,0E0,0E0,0E0],"parents":[2147483647,0,0,1,1,3,3,5,5,6,6,7,7,9,9,10,10,11,11,13,13,14,14,15,15,16,16],"right_children":[2,4,-1,6,-1,8,10,12,-1,14,16,18,-1,20,22,24,26,-1,-1,-1,-1,-1,-1,-1,-1,-1,-1],"split_conditions":[3.0618617E-1,1E0,1.1932508E-1,1E0,1.1920779E-1,1E0,1E0,1E0,1.1990404E-1,1E0,-2.3002292E-1,1E0,1.1925041E-1,1E0,-9.101075E-1,1E0,-2.5773835E-1,-1.1900406E-1,-7.821528E-2,-1.0555064E-1,1.0637547E-1,1.916073E-1,9.270327E-2,-1.108812E-1,1.0338344E-1,1.5127651E-1,1.0986411E-1],"split_indices":[27,21,0,23,0,17,26,22,0,20,6,26,0,24,28,17,28,0,0,0,0,0,0,0,0,0,0],"split_type":[0,0,0,0,0,0,0,0,0,0,0,0,0,0,0,0,0,0,0,0,0,0,0,0,0,0,0],"sum_hessian":[1.98968E4,1.1392073E4,8.504728E3,1.0608127E4,7.839458E2,1.0074184E4,5.339435E2,9.984304E3,8.988034E1,2.3792146E2,2.96022E2,9.934337E3,4.9966675E1,2.1231802E2,2.5603437E1,1.169941E1,2.843226E2,9.037474E3,8.968634E2,1.9550867E2,1.6809351E1,1.231394E1,1.3289498E1,6.361101E0,5.3383093E0,1.290784E2,1.552442E2],"tree_param":{"num_deleted":"0","num_feature":"29","num_nodes":"27","size_leaf_vector":"1"}},{"base_weights":[7.8880356E-4,-8.684987E-1,1.1714889E-1,-1.0184094E0,1.1702216E-1,-1.1249602E0,4.213255E-2,-1.1388097E0,1.16599776E-1,-8.2313335E-1,1.1586182E0,-1.1535203E0,-3.1148043E-1,-9.8527586E-1,8.191625E-1,3.5217635E-2,1.2531688E0,-1.1571296E-1,1.1133238E-1,-1.0166549E-1,1.3985956E-1,-1.05465844E-1,9.0247825E-2,2.4436945E-2,1.5153386E-1,-5.5467565E-2,1.1421453E-1,1.5564413E-1,1.1103832E-1],"categories":[],"categories_nodes":[],"categories_segments":[],"categories_sizes":[],"default_left":[0,0,0,0,0,0,0,0,0,0,0,0,0,0,0,0,0,0,0,0,0,0,0,0,0,0,0,0,0],"id":12,"left_children":[1,3,-1,5,-1,7,9,11,-1,13,15,17,19,21,23,25,27,-1,-1,-1,-1,-1,-1,-1,-1,-1,-1,-1,-1],"loss_changes":[1.8704459E4,3.224816E3,0E0,1.1103662E3,0E0,2.8462207E2,8.6848206E2,1.0766211E2,0E0,1.3568314E2,4.1646606E1,7.2631836E1,1.9005923E2,6.139102E1,1.8060793E1,2.1201468E1,1.394751E1,0E0,0E0,0E0,0E0,0E0,0E0,0E0,0E0,0E0,0E0,0E0,0E0],"parents":[2147483647,0,0,1,1,3,3,5,5,6,6,7,7,9,9,10,10,11,11,12,12,13,13,14,14,15,15,16,16],"right_children":[2,4,-1,6,-1,8,10,12,-1,14,16,18,20,22,24,26,28,-1,-1,-1,-1,-1,-1,-1,-1,-1,-1,-1,-1],"split_conditions":[3.0618617E-1,1E0,1.1714889E-1,1E0,1.1702216E-1,1E0,1E0,1E0,1.16599776E-1,1E0,-2.2976603E-1,1E0,1E0,1E0,1E0,1E0,-2.1951522E-1,-1.1571296E-1,1.1133238E-1,-1.0166549E-1,1.3985956E-1,-1.05465844E-1,9.0247825E-2,2.4436945E-2,1.5153386E-1,-5.5467565E-2,1.1421453E-1,1.5564413E-1,1.1103832E-1],"split_indices":[27,21,0,14,0,22,26,25,0,23,6,17,26,25,20,20,6,0,0,0,0,0,0,0,0,0,0,0,0],"split_type":[0,0,0,0,0,0,0,0,0,0,0,0,0,0,0,0,0,0,0,0,0,0,0,0,0,0,0,0,0],"sum_hessian":[1.8377604E4,1.0546615E4,7.830988E3,9.824689E3,7.219261E2,8.92768E3,8.970095E2,8.874533E3,5.31461E1,5.0550818E2,3.9150134E2,8.7191045E3,1.5542847E2,4.6044855E2,4.5059643E1,3.0499113E1,3.6100223E2,8.705733E3,1.3371749E1,1.1033552E2,4.5092945E1,4.4455084E2,1.5897714E1,2.5421537E1,1.9638105E1,2.0221676E1,1.0277437E1,1.1238954E2,2.4861267E2],"tree_param":{"num_deleted":"0","num_feature":"29","num_nodes":"29","size_leaf_vector":"1"}},{"base_weights":[8.4885844E-4,-8.498515E-1,1.1525041E-1,-9.96195E-1,1.15113035E-1,-1.0773486E0,3.6759862E-1,-1.099289E0,1.1690449E-1,-6.189819E-1,1.0990751E0,-1.1250197E0,-2.81044E-1,-9.025419E-1,9.511478E-1,2.3508178E-2,1.1692926E0,-1.1364465E-1,-4.5174006E-2,-9.0096645E-2,1.07123636E-1,1.0407579E-1,-9.8465875E-2,1.3472544E-2,1.4259903E-1,1.1300742E-1,-1.0080198E-1,1.02873944E-1,1.3348232E-1],"categories":[],"categories_nodes":[],"categories_segments":[],"categories_sizes":[],"default_left":[0,0,0,0,0,0,0,0,0,0,0,0,0,0,0,0,0,0,0,0,0,0,0,0,0,0,0,0,0],"id":13,"left_children":[1,3,-1,5,-1,7,9,11,-1,13,15,17,19,21,23,25,27,-1,-1,-1,-1,-1,-1,-1,-1,-1,-1,-1,-1],"loss_changes":[1.6597584E4,2.8544233E3,0E0,1.00536816E3,0E0,4.2369727E2,3.6925122E2,1.7839453E2,0E0,9.7955765E1,2.2149292E1,6.27959E1,2.1902313E2,3.058464E1,1.292963E1,2.2844784E1,5.039459E0,0E0,0E0,0E0,0E0,0E0,0E0,0E0,0E0,0E0,0E0,0E0,0E0],"parents":[2147483647,0,0,1,1,3,3,5,5,6,6,7,7,9,9,10,10,11,11,12,12,13,13,14,14,15,15,16,16],"right_children":[2,4,-1,6,-1,8,10,12,-1,14,16,18,20,22,24,26,28,-1,-1,-1,-1,-1,-1,-1,-1,-1,-1,-1,-1],"split_conditions":[3.0618617E-1,1E0,1.1525041E-1,1E0,1.15113035E-1,1E0,1E0,1E0,1.1690449E-1,1E0,-2.2983982E-1,1E0,1E0,-1.62008E0,1E0,-1.489514E0,7E0,-1.1364465E-1,-4.5174006E-2,-9.0096645E-2,1.07123636E-1,1.0407579E-1,-9.8465875E-2,1.3472544E-2,1.4259903E-1,1.1300742E-1,-1.0080198E-1,1.02873944E-1,1.3348232E-1],"split_indices":[27,21,0,24,0,22,26,23,0,14,6,25,26,15,19,15,7,0,0,0,0,0,0,0,0,0,0,0,0],"split_type":[0,0,0,0,0,0,0,0,0,0,0,0,0,0,0,0,0,0,0,0,0,0,0,0,0,0,0,0,0],"sum_hessian":[1.6939264E4,9.742772E3,7.196492E3,9.079255E3,6.63517E2,8.569529E3,5.097262E2,8.487146E3,8.238257E1,2.1708548E2,2.9264072E2,8.22803E3,2.5911652E2,1.8423793E2,3.2847553E1,1.8015793E1,2.7462494E2,8.090039E3,1.3799069E2,1.7789728E2,8.1219246E1,6.9962845E0,1.7724164E2,1.2551244E1,2.0296309E1,8.645667E0,9.370126E0,1.5241942E2,1.2220551E2],"tree_param":{"num_deleted":"0","num_feature":"29","num_nodes":"29","size_leaf_vector":"1"}},{"base_weights":[9.2187646E-4,-8.326963E-1,1.1358737E-1,-9.757176E-1,1.1343801E-1,-1.0840881E0,6.2986374E-2,-1.097446E0,1.1247529E-1,-7.6021534E-1,1.0977925E0,-1.1134175E0,-2.056412E-1,-9.260474E-1,7.664684E-1,6.745647E-2,1.1868563E0,-1.11675136E-1,1.07117765E-1,-8.567046E-2,1.1921567E-1,-9.993425E-2,8.1364505E-2,2.0648247E-2,1.4544968E-1,-4.9716506E-2,1.11209296E-1,1.4863056E-1,1.0434153E-1],"categories":[],"categories_nodes":[],"categories_segments":[],"categories_sizes":[],"default_left":[0,0,0,0,0,0,0,0,0,0,0,0,0,0,0,0,0,0,0,0,0,0,0,0,0,0,0,0,0],"id":14,"left_children":[1,3,-1,5,-1,7,9,11,-1,13,15,17,19,21,23,25,27,-1,-1,-1,-1,-1,-1,-1,-1,-1,-1,-1,-1],"loss_changes":[1.4752873E4,2.530291E3,0E0,9.434956E2,0E0,2.2516211E2,6.761522E2,1.0722754E2,0E0,1.1264136E2,3.2189056E1,5.517383E1,1.229342E2,5.1721832E1,1.66004E1,1.7680609E1,1.2349213E1,0E0,0E0,0E0,0E0,0E0,0E0,0E0,0E0,0E0,0E0,0E0,0E0],"parents":[2147483647,0,0,1,1,3,3,5,5,6,6,7,7,9,9,10,10,11,11,12,12,13,13,14,14,15,15,16,16],"right_children":[2,4,-1,6,-1,8,10,12,-1,14,16,18,20,22,24,26,28,-1,-1,-1,-1,-1,-1,-1,-1,-1,-1,-1,-1],"split_conditions":[3.0618617E-1,1E0,1.1358737E-1,1E0,1.1343801E-1,1E0,1E0,1E0,1.1247529E-1,1E0,-2.2976603E-1,1E0,1E0,1E0,1E0,1E0,-2.1951522E-1,-1.11675136E-1,1.07117765E-1,-8.567046E-2,1.1921567E-1,-9.993425E-2,8.1364505E-2,2.0648247E-2,1.4544968E-1,-4.9716506E-2,1.11209296E-1,1.4863056E-1,1.0434153E-1],"split_indices":[27,21,0,14,0,22,26,20,0,23,6,17,26,25,20,20,6,0,0,0,0,0,0,0,0,0,0,0,0],"split_type":[0,0,0,0,0,0,0,0,0,0,0,0,0,0,0,0,0,0,0,0,0,0,0,0,0,0,0,0,0],"sum_hessian":[1.5591085E4,8.988978E3,6.602107E3,8.38018E3,6.0879816E2,7.5884175E3,7.917621E2,7.543303E3,4.5114326E1,4.4111484E2,3.5064722E2,7.410341E3,1.3296211E2,3.9824945E2,4.2865383E1,2.8038675E1,3.2260855E2,7.3995376E3,1.0803308E1,9.097505E1,4.198706E1,3.8255743E2,1.5692E1,2.434837E1,1.8517015E1,1.8541275E1,9.497401E0,1.01452705E2,2.2115585E2],"tree_param":{"num_deleted":"0","num_feature":"29","num_nodes":"29","size_leaf_vector":"1"}},{"base_weights":[1.0027286E-3,-8.1680626E-1,1.12125255E-1,-9.567131E-1,1.1196252E-1,-1.0871356E0,-9.850301E-2,1.1787989E-1,-1.0980296E0,-6.543266E-1,1.0408118E0,-1.1015654E0,1.18777625E-1,-8.0295414E-1,1.280463E0,6.541085E-2,1.1267622E0,-1.1115432E-1,-4.8392516E-2,-9.539557E-2,6.812747E-2,5.5275034E-2,1.812192E-1,-4.5840595E-2,1.0654817E-1,7.0625484E-2,1.2176529E-1],"categories":[],"categories_nodes":[],"categories_segments":[],"categories_sizes":[],"default_left":[0,0,0,0,0,0,0,0,0,0,0,0,0,0,0,0,0,0,0,0,0,0,0,0,0,0,0],"id":15,"left_children":[1,3,-1,5,-1,7,9,-1,11,13,15,17,-1,19,21,23,25,-1,-1,-1,-1,-1,-1,-1,-1,-1,-1],"loss_changes":[1.3132482E4,2.2458262E3,0E0,8.648784E2,0E0,1.6689062E2,6.469732E2,0E0,5.5270996E1,1.984559E2,2.8013733E1,4.0547363E1,0E0,1.4368213E2,1.8099167E1,1.5257369E1,1.0905548E1,0E0,0E0,0E0,0E0,0E0,0E0,0E0,0E0,0E0,0E0],"parents":[2147483647,0,0,1,1,3,3,5,5,6,6,8,8,9,9,10,10,11,11,13,13,14,14,15,15,16,16],"right_children":[2,4,-1,6,-1,8,10,-1,12,14,16,18,-1,20,22,24,26,-1,-1,-1,-1,-1,-1,-1,-1,-1,-1],"split_conditions":[3.0618617E-1,1E0,1.12125255E-1,1E0,1.1196252E-1,-1.62008E0,1E0,1.1787989E-1,1E0,1E0,-2.2976603E-1,1E0,1.18777625E-1,1E0,-6.186E0,1E0,3E0,-1.1115432E-1,-4.8392516E-2,-9.539557E-2,6.812747E-2,5.5275034E-2,1.812192E-1,-4.5840595E-2,1.0654817E-1,7.0625484E-2,1.2176529E-1],"split_indices":[27,21,0,26,0,15,14,0,17,25,6,20,0,23,4,20,10,0,0,0,0,0,0,0,0,0,0],"split_type":[0,0,0,0,0,0,0,0,0,0,0,0,0,0,0,0,0,0,0,0,0,0,0,0,0,0,0],"sum_hessian":[1.433242E4,8.284679E3,6.0477417E3,7.726916E3,5.577623E2,6.707333E3,1.0195827E3,3.1580032E1,6.6757534E3,6.85555E2,3.3402768E2,6.66596E3,9.793001E0,6.371919E2,4.83631E1,2.7192875E1,3.068348E2,6.5591997E3,1.0676066E2,5.7867615E2,5.8515747E1,2.1279703E1,2.7083393E1,1.8201122E1,8.991753E0,5.6092472E1,2.5074232E2],"tree_param":{"num_deleted":"0","num_feature":"29","num_nodes":"27","size_leaf_vector":"1"}},{"base_weights":[1.0658007E-3,-8.018355E-1,1.10835694E-1,-9.3875784E-1,1.1065807E-1,-1.0713875E0,-9.397808E-2,1.1534597E-1,-1.0821782E0,-6.2526673E-1,9.865622E-1,-1.0857103E0,1.1513604E-1,-8.287448E-1,7.8192806E-1,6.345826E-2,1.0695701E0,-1.09665595E-1,-4.483043E-2,-9.390434E-2,1.01010315E-1,3.049261E-2,1.41654E-1,-4.2264853E-2,1.1170268E-1,7.8488685E-2,1.2103074E-1],"categories":[],"categories_nodes":[],"categories_segments":[],"categories_sizes":[],"default_left":[0,0,0,0,0,0,0,0,0,0,0,0,0,0,0,0,0,0,0,0,0,0,0,0,0,0,0],"id":16,"left_children":[1,3,-1,5,-1,7,9,-1,11,13,15,17,-1,19,21,23,25,-1,-1,-1,-1,-1,-1,-1,-1,-1,-1],"loss_changes":[1.1704415E4,1.9951895E3,0E0,7.9777637E2,0E0,1.4900928E2,5.559831E2,0E0,4.9574707E1,1.8651895E2,2.4395538E1,4.218164E1,0E0,1.16074646E2,2.4548191E1,1.4506648E1,1.07836E1,0E0,0E0,0E0,0E0,0E0,0E0,0E0,0E0,0E0,0E0],"parents":[2147483647,0,0,1,1,3,3,5,5,6,6,8,8,9,9,10,10,11,11,13,13,14,14,15,15,16,16],"right_children":[2,4,-1,6,-1,8,10,-1,12,14,16,18,-1,20,22,24,26,-1,-1,-1,-1,-1,-1,-1,-1,-1,-1],"split_conditions":[3.0618617E-1,1E0,1.10835694E-1,1E0,1.1065807E-1,-1.62008E0,1E0,1.1534597E-1,1E0,1E0,-2.2976603E-1,1E0,1.1513604E-1,1E0,7E0,1E0,4E0,-1.09665595E-1,-4.483043E-2,-9.390434E-2,1.01010315E-1,3.049261E-2,1.41654E-1,-4.2264853E-2,1.1170268E-1,7.8488685E-2,1.2103074E-1],"split_indices":[27,21,0,26,0,15,14,0,17,24,6,20,0,20,7,25,7,0,0,0,0,0,0,0,0,0,0],"split_type":[0,0,0,0,0,0,0,0,0,0,0,0,0,0,0,0,0,0,0,0,0,0,0,0,0,0,0],"sum_hessian":[1.3163147E4,7.63051E3,5.532637E3,7.12017E3,5.1033987E2,6.1537656E3,9.6640424E2,2.9191105E1,6.1245747E3,6.4814197E2,3.1826227E2,6.115418E3,9.156928E0,5.666206E2,8.1521355E1,2.6403349E1,2.9185892E2,6.0114673E3,1.03950584E2,5.3501825E2,3.1602365E1,4.738512E1,3.4136234E1,1.847705E1,7.926299E0,9.872835E1,1.9313057E2],"tree_param":{"num_deleted":"0","num_feature":"29","num_nodes":"27","size_leaf_vector":"1"}},{"base_weights":[1.1364691E-3,-7.8786707E-1,1.09695114E-1,-9.219798E-1,1.0950094E-1,-1.0569142E0,-8.973625E-2,1.130682E-1,-1.067611E0,-5.990883E-1,9.338527E-1,-1.0831641E0,-5.047193E-1,-7.9869217E-1,7.2096586E-1,6.209153E-2,1.0137959E0,-1.0860192E-1,1.10788636E-1,-7.972096E-2,1.4092849E-1,-9.025626E-2,1.0510693E-1,2.764225E-2,1.3336593E-1,-4.388496E-2,1.0306185E-1,5.9262346E-2,1.1076235E-1],"categories":[],"categories_nodes":[],"categories_segments":[],"categories_sizes":[],"default_left":[0,0,0,0,0,0,0,0,0,0,0,0,0,0,0,0,0,0,0,0,0,0,0,0,0,0,0,0,0],"id":17,"left_children":[1,3,-1,5,-1,7,9,-1,11,13,15,17,19,21,23,25,27,-1,-1,-1,-1,-1,-1,-1,-1,-1,-1,-1,-1],"loss_changes":[1.04438125E4,1.7743926E3,0E0,7.3617676E2,0E0,1.332207E2,4.7802673E2,0E0,4.8608887E1,1.6186057E2,2.1170868E1,3.5375977E1,8.6687E1,1.0320096E2,2.1672924E1,1.3386429E1,1.0370026E1,0E0,0E0,0E0,0E0,0E0,0E0,0E0,0E0,0E0,0E0,0E0,0E0],"parents":[2147483647,0,0,1,1,3,3,5,5,6,6,8,8,9,9,10,10,11,11,12,12,13,13,14,14,15,15,16,16],"right_children":[2,4,-1,6,-1,8,10,-1,12,14,16,18,20,22,24,26,28,-1,-1,-1,-1,-1,-1,-1,-1,-1,-1,-1,-1],"split_conditions":[3.0618617E-1,1E0,1.09695114E-1,1E0,1.0950094E-1,-1.62008E0,1E0,1.130682E-1,1E0,1E0,-2.2976603E-1,1E0,1E0,1E0,7E0,1E0,3E0,-1.0860192E-1,1.10788636E-1,-7.972096E-2,1.4092849E-1,-9.025626E-2,1.0510693E-1,2.764225E-2,1.3336593E-1,-4.388496E-2,1.0306185E-1,5.9262346E-2,1.1076235E-1],"split_indices":[27,21,0,26,0,15,14,0,23,24,6,17,20,25,7,20,10,0,0,0,0,0,0,0,0,0,0,0,0],"split_type":[0,0,0,0,0,0,0,0,0,0,0,0,0,0,0,0,0,0,0,0,0,0,0,0,0,0,0,0,0],"sum_hessian":[1.2077335E4,7.0218066E3,5.055529E3,6.555392E3,4.6641437E2,5.6405938E3,9.147985E2,2.693713E1,5.6136567E3,6.1111426E2,3.036842E2,5.4618174E3,1.5183907E2,5.311888E2,7.99255E1,2.5658718E1,2.780255E2,5.4552134E3,6.604038E0,1.322176E2,1.9621462E1,5.0343146E2,2.775731E1,4.715968E1,3.2765823E1,1.7272125E1,8.386593E0,5.198627E1,2.2603923E2],"tree_param":{"num_deleted":"0","num_feature":"29","num_nodes":"29","size_leaf_vector":"1"}},{"base_weights":[1.2100239E-3,-7.746332E-1,1.0868376E-1,-9.0605426E-1,1.08471215E-1,-1.0439655E0,-8.544377E-2,1.11004464E-1,-1.0545831E0,-5.72188E-1,8.8259053E-1,-1.07107E0,-4.7985846E-1,-7.653368E-1,8.050199E-1,6.466346E-1,1.1976161E0,-1.073943E-1,1.0746455E-1,-7.423554E-2,1.4337157E-1,-8.823098E-2,9.773251E-2,1.1573219E-1,3.471608E-3,3.678748E-2,1.17339216E-1,1.3368924E-1,1.0955273E-1],"categories":[],"categories_nodes":[],"categories_segments":[],"categories_sizes":[],"default_left":[0,0,0,0,0,0,0,0,0,0,0,0,0,0,0,0,0,0,0,0,0,0,0,0,0,0,0,0,0],"id":18,"left_children":[1,3,-1,5,-1,7,9,-1,11,13,15,17,19,21,23,25,27,-1,-1,-1,-1,-1,-1,-1,-1,-1,-1,-1,-1],"loss_changes":[9.327965E3,1.5792549E3,0E0,6.8267773E2,0E0,1.19293945E2,4.100198E2,0E0,4.819043E1,1.5461542E2,2.0869965E1,3.1952637E1,7.3974785E1,1.0446362E2,1.9416126E1,2.4334122E1,2.9174805E-1,0E0,0E0,0E0,0E0,0E0,0E0,0E0,0E0,0E0,0E0,0E0,0E0],"parents":[2147483647,0,0,1,1,3,3,5,5,6,6,8,8,9,9,10,10,11,11,12,12,13,13,14,14,15,15,16,16],"right_children":[2,4,-1,6,-1,8,10,-1,12,14,16,18,20,22,24,26,28,-1,-1,-1,-1,-1,-1,-1,-1,-1,-1,-1,-1],"split_conditions":[3.0618617E-1,1E0,1.0868376E-1,1E0,1.08471215E-1,-1.62008E0,1E0,1.11004464E-1,1E0,1E0,1E0,1E0,1E0,1E0,-1.5977727E-1,1E0,-2.0637701E-1,-1.073943E-1,1.0746455E-1,-7.423554E-2,1.4337157E-1,-8.823098E-2,9.773251E-2,1.1573219E-1,3.471608E-3,3.678748E-2,1.17339216E-1,1.3368924E-1,1.0955273E-1],"split_indices":[27,21,0,26,0,15,14,0,23,23,25,17,24,25,15,23,6,0,0,0,0,0,0,0,0,0,0,0,0],"split_type":[0,0,0,0,0,0,0,0,0,0,0,0,0,0,0,0,0,0,0,0,0,0,0,0,0,0,0,0,0],"sum_hessian":[1.1072703E4,6.4578735E3,4.6148296E3,6.0320337E3,4.2583966E2,5.163917E3,8.681165E2,2.4821323E1,5.1390957E3,5.779315E2,2.9018497E2,4.994945E3,1.4415106E2,5.0723746E2,7.069408E1,1.6765959E2,1.22525375E2,4.9887646E3,6.1803017E0,1.27300514E2,1.6850554E1,4.7579434E2,3.1443123E1,4.8163746E1,2.2530333E1,1.1074944E2,5.6910152E1,4.67079E1,7.5817474E1],"tree_param":{"num_deleted":"0","num_feature":"29","num_nodes":"29","size_leaf_vector":"1"}},{"base_weights":[1.3272084E-3,-7.618342E-1,1.07784964E-1,-9.99507E-1,2.3956521E-1,-1.0317445E0,1.063782E-1,-3.5136184E-1,9.497153E-1,1.0911957E-1,-1.0422877E0,-6.113257E-1,8.6620605E-1,7.7012753E-1,1.1210402E-1,-1.0570303E0,-2.8838438E-1,-7.6199347E-1,9.306909E-1,9.892601E-1,-1.1421239E-2,5.4359794E-1,1.1114665E-1,-1.060066E-1,1.0630931E-1,-7.305247E-2,1.330392E-1,-8.682593E-2,1.0789001E-1,1.5725028E-2,1.3586459E-1,1.1581645E-1,6.0700636E-2,-9.0346985E-2,1.024934E-1,2.2954509E-2,1.0714113E-1],"categories":[],"categories_nodes":[],"categories_segments":[],"categories_sizes":[],"default_left":[0,0,0,0,0,0,0,0,0,0,0,0,0,0,0,0,0,0,0,0,0,0,0,0,0,0,0,0,0,0,0,0,0,0,0,0,0],"id":19,"left_children":[1,3,-1,5,7,9,-1,11,13,-1,15,17,19,21,-1,23,25,27,29,31,33,35,-1,-1,-1,-1,-1,-1,-1,-1,-1,-1,-1,-1,-1,-1,-1],"loss_changes":[8.337177E3,1.4135779E3,0E0,3.2033203E2,4.7867044E2,1.06918945E2,0E0,1.9768655E2,1.5073517E1,0E0,5.1969727E1,1.20099045E2,1.1891518E1,1.9197006E1,0E0,3.0812988E1,6.652039E1,9.2622894E1,1.5075409E1,5.526848E0,1.4345854E1,2.559385E1,0E0,0E0,0E0,0E0,0E0,0E0,0E0,0E0,0E0,0E0,0E0,0E0,0E0,0E0,0E0],"parents":[2147483647,0,0,1,1,3,3,4,4,5,5,7,7,8,8,10,10,11,11,12,12,13,13,15,15,16,16,17,17,18,18,19,19,20,20,21,21],"right_children":[2,4,-1,6,8,10,-1,12,14,-1,16,18,20,22,-1,24,26,28,30,32,34,36,-1,-1,-1,-1,-1,-1,-1,-1,-1,-1,-1,-1,-1,-1,-1],"split_conditions":[3.0618617E-1,1E0,1.07784964E-1,1E0,1E0,-1.62008E0,1.063782E-1,1E0,1E0,1.0911957E-1,1E0,1E0,6E0,1E0,1.1210402E-1,1E0,1E0,1E0,-6.186E0,-1.5977727E-1,1E0,1E0,1.1114665E-1,-1.060066E-1,1.0630931E-1,-7.305247E-2,1.330392E-1,-8.682593E-2,1.0789001E-1,1.5725028E-2,1.3586459E-1,1.1581645E-1,6.0700636E-2,-9.0346985E-2,1.024934E-1,2.2954509E-2,1.0714113E-1],"split_indices":[27,26,0,21,14,15,0,23,25,0,20,25,10,23,0,17,23,22,4,15,24,24,0,0,0,0,0,0,0,0,0,0,0,0,0,0,0],"split_type":[0,0,0,0,0,0,0,0,0,0,0,0,0,0,0,0,0,0,0,0,0,0,0,0,0,0,0,0,0,0,0,0,0,0,0,0,0],"sum_hessian":[1.0145978E4,5.937263E3,4.208715E3,4.798408E3,1.1388552E3,4.7250815E3,7.332638E1,6.218824E2,5.1697284E2,2.2843794E1,4.702238E3,5.128758E2,1.090066E2,2.550828E2,2.6189008E2,4.611655E3,9.05832E1,4.6768497E2,4.5190834E1,9.549047E1,1.3516128E1,1.5488553E2,1.0019726E2,4.6055605E3,6.094266E0,7.1580864E1,1.9002337E1,4.4266064E2,2.5024307E1,1.658475E1,2.8606087E1,6.481928E1,3.0671185E1,7.332694E0,6.183434E0,9.800609E1,5.6879448E1],"tree_param":{"num_deleted":"0","num_feature":"29","num_nodes":"37","size_leaf_vector":"1"}},{"base_weights":[1.4780938E-3,-7.4956954E-1,1.0698461E-1,-9.88567E-1,2.3147981E-1,-1.0204438E0,1.0546254E-1,-3.3603764E-1,9.206285E-1,1.0738385E-1,-1.0309217E0,-6.0499567E-1,8.1539136E-1,7.310046E-1,1.1093396E-1,-1.0464529E0,-2.720429E-1,-7.718598E-1,1.0119482E0,4.7130266E-1,1.0595214E0,5.04692E-1,1.09159544E-1,-1.049512E-1,1.03314936E-1,-6.960635E-2,1.22090556E-1,-8.520048E-2,1.0184119E-1,1.22162E-1,7.530488E-3,-3.7693002E-3,1.13711275E-1,6.7440644E-2,1.4777069E-1,2.0694282E-2,1.0424401E-1],"categories":[],"categories_nodes":[],"categories_segments":[],"categories_sizes":[],"default_left":[0,0,0,0,0,0,0,0,0,0,0,0,0,0,0,0,0,0,0,0,0,0,0,0,0,0,0,0,0,0,0,0,0,0,0,0,0],"id":20,"left_children":[1,3,-1,5,7,9,-1,11,13,-1,15,17,19,21,-1,23,25,27,29,31,33,35,-1,-1,-1,-1,-1,-1,-1,-1,-1,-1,-1,-1,-1,-1,-1],"loss_changes":[7.456913E3,1.279739E3,0E0,2.8688623E2,4.1871515E2,9.5933105E1,0E0,1.824057E2,1.6487122E1,0E0,5.040088E1,1.2941408E2,8.879936E0,1.9364944E1,0E0,2.789209E1,5.630255E1,6.2955444E1,8.751343E0,1.635783E1,9.393265E0,2.4089916E1,0E0,0E0,0E0,0E0,0E0,0E0,0E0,0E0,0E0,0E0,0E0,0E0,0E0,0E0,0E0],"parents":[2147483647,0,0,1,1,3,3,4,4,5,5,7,7,8,8,10,10,11,11,12,12,13,13,15,15,16,16,17,17,18,18,19,19,20,20,21,21],"right_children":[2,4,-1,6,8,10,-1,12,14,-1,16,18,20,22,-1,24,26,28,30,32,34,36,-1,-1,-1,-1,-1,-1,-1,-1,-1,-1,-1,-1,-1,-1,-1],"split_conditions":[3.0618617E-1,1E0,1.0698461E-1,1E0,1E0,-1.62008E0,1.0546254E-1,1E0,1E0,1.0738385E-1,1E0,1E0,-2.1210425E-1,1E0,1.1093396E-1,1E0,1E0,1E0,-2.0719567E-1,1E0,8E0,1E0,1.09159544E-1,-1.049512E-1,1.03314936E-1,-6.960635E-2,1.22090556E-1,-8.520048E-2,1.0184119E-1,1.22162E-1,7.530488E-3,-3.7693002E-3,1.13711275E-1,6.7440644E-2,1.4777069E-1,2.0694282E-2,1.0424401E-1],"split_indices":[27,26,0,21,14,15,0,24,25,0,20,20,6,23,0,17,23,21,6,23,0,24,0,0,0,0,0,0,0,0,0,0,0,0,0,0,0],"split_type":[0,0,0,0,0,0,0,0,0,0,0,0,0,0,0,0,0,0,0,0,0,0,0,0,0,0,0,0,0,0,0,0,0,0,0,0,0],"sum_hessian":[9.291317E3,5.456073E3,3.8352444E3,4.387266E3,1.0688074E3,4.3203623E3,6.6903404E1,5.8640894E2,4.8239838E2,2.1002335E1,4.2993604E3,4.757539E2,1.1065504E2,2.4304825E2,2.3935011E2,4.2127627E3,8.659738E1,4.3172385E2,4.403007E1,4.7141747E1,6.351329E1,1.5080208E2,9.224616E1,4.2070693E3,5.6934857E0,6.785833E1,1.8739056E1,4.1372665E2,1.7997173E1,3.5727962E1,8.302112E0,2.7251795E1,1.988995E1,3.4424137E1,2.9089153E1,9.79515E1,5.285058E1],"tree_param":{"num_deleted":"0","num_feature":"29","num_nodes":"37","size_leaf_vector":"1"}},{"base_weights":[1.6523063E-3,-7.375501E-1,1.0627057E-1,-9.7820324E-1,2.2365677E-1,-1.0097383E0,1.04619496E-1,-3.20904E-1,8.917247E-1,1.0577196E-1,-1.0201563E0,-5.811182E-1,7.6961005E-1,6.9295126E-1,1.0984716E0,-1.0402548E0,-3.440583E-1,-7.4428856E-1,9.3932414E-1,5.0476205E-1,1.1133362E0,4.6804532E-1,1.0723817E-1,4.5336675E-2,1.1020198E-1,-1.0497921E-1,-5.4293294E-2,-6.4381056E-2,1.4737903E-1,-8.2414E-2,1.047977E-1,5.15728E-2,1.4319047E-1,-6.6590197E-3,9.696903E-2,4.318854E-2,1.13556944E-1,1.8655645E-2,1.0143276E-1],"categories":[],"categories_nodes":[],"categories_segments":[],"categories_sizes":[],"default_left":[0,0,0,0,0,0,0,0,0,0,0,0,0,0,0,0,0,0,0,0,0,0,0,0,0,0,0,0,0,0,0,0,0,0,0,0,0,0,0],"id":21,"left_children":[1,3,-1,5,7,9,-1,11,13,-1,15,17,19,21,23,25,27,29,31,33,35,37,-1,-1,-1,-1,-1,-1,-1,-1,-1,-1,-1,-1,-1,-1,-1,-1,-1],"loss_changes":[6.6729775E3,1.1601453E3,0E0,2.570891E2,3.65863E2,8.614697E1,0E0,1.5775253E2,1.7794708E1,0E0,5.3049316E1,1.1187431E2,9.199146E0,1.9373878E1,3.0822754E-3,1.7530273E1,6.358979E1,5.8861053E1,8.415791E0,1.6637688E1,2.0398712E-1,2.2570225E1,0E0,0E0,0E0,0E0,0E0,0E0,0E0,0E0,0E0,0E0,0E0,0E0,0E0,0E0,0E0,0E0,0E0],"parents":[2147483647,0,0,1,1,3,3,4,4,5,5,7,7,8,8,10,10,11,11,12,12,13,13,14,14,15,15,16,16,17,17,18,18,19,19,20,20,21,21],"right_children":[2,4,-1,6,8,10,-1,12,14,-1,16,18,20,22,24,26,28,30,32,34,36,38,-1,-1,-1,-1,-1,-1,-1,-1,-1,-1,-1,-1,-1,-1,-1,-1,-1],"split_conditions":[3.0618617E-1,1E0,1.0627057E-1,1E0,1E0,-1.62008E0,1.04619496E-1,1E0,1E0,1.0577196E-1,1E0,1E0,1E0,1E0,1E0,1E0,1E0,1E0,9E0,-2.1131073E-1,3E0,1E0,1.0723817E-1,4.5336675E-2,1.1020198E-1,-1.0497921E-1,-5.4293294E-2,-6.4381056E-2,1.4737903E-1,-8.2414E-2,1.047977E-1,5.15728E-2,1.4319047E-1,-6.6590197E-3,9.696903E-2,4.318854E-2,1.13556944E-1,1.8655645E-2,1.0143276E-1],"split_indices":[27,26,0,21,14,15,0,24,25,0,24,20,23,23,10,20,23,22,13,6,9,24,0,0,0,0,0,0,0,0,0,0,0,0,0,0,0,0,0],"split_type":[0,0,0,0,0,0,0,0,0,0,0,0,0,0,0,0,0,0,0,0,0,0,0,0,0,0,0,0,0,0,0,0,0,0,0,0,0,0,0],"sum_hessian":[8.505836E3,5.013437E3,3.4923987E3,4.009563E3,1.0038742E3,3.9485554E3,6.1007446E1,5.5334607E2,4.5052814E2,1.9293036E1,3.9292625E3,4.4712256E2,1.0622354E2,2.3191191E2,2.1861623E2,3.8153047E3,1.1395775E2,4.0424988E2,4.2872673E1,6.138988E1,4.483366E1,1.470074E2,8.490452E1,1.9002668E0,2.1671596E2,3.742425E3,7.287968E1,9.8381134E1,1.5576615E1,3.875245E2,1.6725357E1,2.4150969E1,1.8721704E1,2.7927025E1,3.3462856E1,2.0618875E0,4.277177E1,9.790191E1,4.9105484E1],"tree_param":{"num_deleted":"0","num_feature":"29","num_nodes":"39","size_leaf_vector":"1"}},{"base_weights":[1.8253793E-3,-7.2533584E-1,1.0563251E-1,-9.6782017E-1,2.159368E-1,-9.990042E-1,1.0383767E-1,-3.0584353E-1,8.629515E-1,1.0426213E-1,-1.0093586E0,-5.4964405E-1,8.201393E-1,6.559384E-1,1.088392E0,-1.031105E0,-3.3170998E-1,-7.051577E-1,8.929942E-1,1.052596E0,3.287726E-1,4.3355882E-1,1.0536774E-1,4.3359313E-2,1.0922628E-1,-1.0346966E-1,1.0237211E-1,-6.123662E-2,1.3206464E-1,-8.077919E-2,1.0526706E-1,1.3545582E-2,1.3166814E-1,8.3483145E-2,1.6543007E-1,-1.8022604E-2,9.860063E-2,-3.8928412E-2,6.2173665E-2],"categories":[],"categories_nodes":[],"categories_segments":[],"categories_sizes":[],"default_left":[0,0,0,0,0,0,0,0,0,0,0,0,0,0,0,0,0,0,0,0,0,0,0,0,0,0,0,0,0,0,0,0,0,0,0,0,0,0,0],"id":22,"left_children":[1,3,-1,5,7,9,-1,11,13,-1,15,17,19,21,23,25,27,29,31,33,35,37,-1,-1,-1,-1,-1,-1,-1,-1,-1,-1,-1,-1,-1,-1,-1,-1,-1],"loss_changes":[5.9729126E3,1.0524849E3,0E0,2.303938E2,3.193658E2,7.737793E1,0E0,1.4429156E2,1.8991058E1,0E0,5.260254E1,9.7396164E1,1.03521385E1,1.923423E1,3.4851074E-2,2.6746094E1,5.3297768E1,7.119469E1,1.3434242E1,6.890602E0,1.0726757E1,2.2614939E1,0E0,0E0,0E0,0E0,0E0,0E0,0E0,0E0,0E0,0E0,0E0,0E0,0E0,0E0,0E0,0E0,0E0],"parents":[2147483647,0,0,1,1,3,3,4,4,5,5,7,7,8,8,10,10,11,11,12,12,13,13,14,14,15,15,16,16,17,17,18,18,19,19,20,20,21,21],"right_children":[2,4,-1,6,8,10,-1,12,14,-1,16,18,20,22,24,26,28,30,32,34,36,38,-1,-1,-1,-1,-1,-1,-1,-1,-1,-1,-1,-1,-1,-1,-1,-1,-1],"split_conditions":[3.0618617E-1,1E0,1.0563251E-1,1E0,1E0,-1.62008E0,1.0383767E-1,1E0,1E0,1.0426213E-1,1E0,1E0,-1.5977727E-1,1E0,1E0,1E0,1E0,1E0,-6.186E0,4.9E1,1E0,3E0,1.0536774E-1,4.3359313E-2,1.0922628E-1,-1.0346966E-1,1.0237211E-1,-6.123662E-2,1.3206464E-1,-8.077919E-2,1.0526706E-1,1.3545582E-2,1.3166814E-1,8.3483145E-2,1.6543007E-1,-1.8022604E-2,9.860063E-2,-3.8928412E-2,6.2173665E-2],"split_indices":[27,26,0,21,14,15,0,23,25,0,23,25,15,23,10,17,24,22,4,9,24,10,0,0,0,0,0,0,0,0,0,0,0,0,0,0,0,0,0],"split_type":[0,0,0,0,0,0,0,0,0,0,0,0,0,0,0,0,0,0,0,0,0,0,0,0,0,0,0,0,0,0,0,0,0,0,0,0,0,0,0],"sum_hessian":[7.78749E3,4.6093145E3,3.1781758E3,3.6651062E3,9.4420825E2,3.6095027E3,5.5603516E1,5.2298114E2,4.2122708E2,1.7710768E1,3.5917917E3,4.3031927E2,9.26619E1,2.2162611E2,1.9960097E2,3.4796064E3,1.1218536E2,3.88907E2,4.141224E1,6.2128056E1,3.0533848E1,1.4348975E2,7.813637E1,1.8371563E0,1.9776381E2,3.4740308E3,5.5756226E0,9.643506E1,1.57503E1,3.6796326E2,2.094377E1,1.5327277E1,2.608496E1,4.7371243E1,1.4756813E1,1.7616457E1,1.2917392E1,2.6508339E1,1.169814E2],"tree_param":{"num_deleted":"0","num_feature":"29","num_nodes":"39","size_leaf_vector":"1"}},{"base_weights":[2.0123208E-3,-7.130383E-1,1.05061434E-1,-9.580448E-1,2.077089E-1,-9.889035E-1,1.0310706E-1,-2.9066554E-1,8.30909E-1,-1.0118681E0,-6.813634E-2,-5.388415E-1,7.2607833E-1,6.152284E-1,1.0789334E0,1.0068184E-1,-1.0188607E0,-2.748914E-1,3.2987227E0,-7.0064753E-1,8.798655E-1,5.1798934E-1,1.145138E0,7.434938E-1,-1.0058128E-1,4.1453086E-2,1.0831628E-1,-1.0319632E-1,-2.787906E-2,-7.70894E-2,1.20683186E-1,-1.5288089E-2,6.3514864E-1,-7.84417E-2,1.0076995E-1,4.619282E-2,1.3729167E-1,9.846712E-2,-2.7257937E-3,1.3055226E-1,6.301675E-2,1.0521506E-2,9.312493E-2,-7.4992925E-2,6.790331E-2],"categories":[],"categories_nodes":[],"categories_segments":[],"categories_sizes":[],"default_left":[0,0,0,0,0,0,0,0,0,0,0,0,0,0,0,0,0,0,0,0,0,0,0,0,0,0,0,0,0,0,0,0,0,0,0,0,0,0,0,0,0,0,0,0,0],"id":23,"left_children":[1,3,-1,5,7,9,-1,11,13,15,17,19,21,23,25,-1,27,29,31,33,35,37,39,41,43,-1,-1,-1,-1,-1,-1,-1,-1,-1,-1,-1,-1,-1,-1,-1,-1,-1,-1,-1,-1],"loss_changes":[5.3475835E3,9.567888E2,0E0,2.0660986E2,2.7729413E2,6.968262E1,0E0,1.2564717E2,2.0553802E1,4.64563E1,5.753067E1,9.234139E1,7.936741E0,1.9766663E1,6.567383E-2,0E0,3.0817383E1,5.793188E1,5.137006E1,5.219832E1,7.8866196E0,1.7123247E1,1.7897491E0,2.1713448E1,1.7454456E1,0E0,0E0,0E0,0E0,0E0,0E0,0E0,0E0,0E0,0E0,0E0,0E0,0E0,0E0,0E0,0E0,0E0,0E0,0E0,0E0],"parents":[2147483647,0,0,1,1,3,3,4,4,5,5,7,7,8,8,9,9,10,10,11,11,12,12,13,13,14,14,16,16,17,17,18,18,19,19,20,20,21,21,22,22,23,23,24,24],"right_children":[2,4,-1,6,8,10,-1,12,14,16,18,20,22,24,26,-1,28,30,32,34,36,38,40,42,44,-1,-1,-1,-1,-1,-1,-1,-1,-1,-1,-1,-1,-1,-1,-1,-1,-1,-1,-1,-1],"split_conditions":[3.0618617E-1,1E0,1.05061434E-1,1E0,1E0,1E0,1.0310706E-1,1E0,1E0,-1.62008E0,5.5E1,1E0,7E0,6E0,1E0,1.0068184E-1,1E0,1E0,1.2E1,1E0,9E0,-8.200156E-1,1.07619E2,3E0,6.4584315E-1,4.1453086E-2,1.0831628E-1,-1.0319632E-1,-2.787906E-2,-7.70894E-2,1.20683186E-1,-1.5288089E-2,6.3514864E-1,-7.84417E-2,1.0076995E-1,4.619282E-2,1.3729167E-1,9.846712E-2,-2.7257937E-3,1.3055226E-1,6.301675E-2,1.0521506E-2,9.312493E-2,-7.4992925E-2,6.790331E-2],"split_indices":[27,26,0,21,14,20,0,24,25,15,9,20,7,10,10,0,25,23,0,21,13,15,5,10,15,0,0,0,0,0,0,0,0,0,0,0,0,0,0,0,0,0,0,0,0],"split_type":[0,0,0,0,0,0,0,0,0,0,0,0,0,0,0,0,0,0,0,0,0,0,0,0,0,0,0,0,0,0,0,0,0,0,0,0,0,0,0,0,0,0,0,0,0],"sum_hessian":[7.1299795E3,4.23941E3,2.8905696E3,3.348381E3,8.91029E2,3.2977236E3,5.0657276E1,4.9539453E2,3.9563443E2,3.217381E3,8.034268E1,3.9857645E2,9.6818085E1,2.1347672E2,1.8215771E2,1.06127825E1,3.2067683E3,7.65596E1,3.7830858E0,3.5822626E2,4.0350204E1,6.618782E1,3.0630262E1,1.8100406E2,3.2472652E1,1.7785378E0,1.8037918E2,3.1505942E3,5.61741E1,5.7718296E1,1.8841301E1,2.221392E0,1.5616941E0,3.4199713E2,1.6229116E1,2.2886892E1,1.7463312E1,3.5229057E1,3.0958769E1,2.2185562E1,8.4447E0,4.1496452E1,1.3950761E2,1.773723E1,1.4735424E1],"tree_param":{"num_deleted":"0","num_feature":"29","num_nodes":"45","size_leaf_vector":"1"}},{"base_weights":[2.224381E-3,-7.003811E-1,1.045496E-1,-9.479026E-1,1.9959961E-1,-9.7841626E-1,1.024187E-1,-2.761405E-1,7.9792887E-1,-1.0067992E0,-1.5173271E-1,-5.1052684E-1,7.801346E-1,5.747394E-1,1.0700059E0,1.0016169E-1,-1.0141506E0,-8.4296876E-1,7.649969E-1,-6.6526914E-1,8.4202E-1,9.0591395E-1,-6.50604E-2,3.4793326E-1,1.02306485E-1,3.9617393E-2,1.074633E-1,-1.0267388E-1,-4.409022E-2,-9.493765E-2,9.262511E-2,2.0818411E-1,6.655869E-3,-7.627851E-2,1.03449106E-1,1.1279069E-2,1.2567692E-1,1.1001493E-1,5.0496418E-2,-7.701277E-2,8.487423E-2,7.6781563E-3,9.5714666E-2],"categories":[],"categories_nodes":[],"categories_segments":[],"categories_sizes":[],"default_left":[0,0,0,0,0,0,0,0,0,0,0,0,0,0,0,0,0,0,0,0,0,0,0,0,0,0,0,0,0,0,0,0,0,0,0,0,0,0,0,0,0,0,0],"id":24,"left_children":[1,3,-1,5,7,9,-1,11,13,15,17,19,21,23,25,-1,27,29,31,33,35,37,39,41,-1,-1,-1,-1,-1,-1,-1,-1,-1,-1,-1,-1,-1,-1,-1,-1,-1,-1,-1],"loss_changes":[4.7878955E3,8.696821E2,0E0,1.852251E2,2.4011194E2,7.059741E1,0E0,1.1681328E2,2.206839E1,4.4055176E1,6.4815155E1,8.12293E1,9.178894E0,2.0729897E1,9.5458984E-2,0E0,2.0509277E1,1.1837833E1,4.0382156E1,5.8209427E1,1.1959366E1,5.265274E0,8.414731E0,2.292412E1,0E0,0E0,0E0,0E0,0E0,0E0,0E0,0E0,0E0,0E0,0E0,0E0,0E0,0E0,0E0,0E0,0E0,0E0,0E0],"parents":[2147483647,0,0,1,1,3,3,4,4,5,5,7,7,8,8,9,9,10,10,11,11,12,12,13,13,14,14,16,16,17,17,18,18,19,19,20,20,21,21,22,22,23,23],"right_children":[2,4,-1,6,8,10,-1,12,14,16,18,20,22,24,26,-1,28,30,32,34,36,38,40,42,-1,-1,-1,-1,-1,-1,-1,-1,-1,-1,-1,-1,-1,-1,-1,-1,-1,-1,-1],"split_conditions":[3.0618617E-1,1E0,1.045496E-1,1E0,1E0,1E0,1.024187E-1,1E0,1E0,-1.621932E0,1E0,1E0,6E0,1E0,1E0,1.0016169E-1,1E0,1E0,-9.080584E-1,1E0,-6.186E0,-1.5977727E-1,1E0,1E0,1.02306485E-1,3.9617393E-2,1.074633E-1,-1.0267388E-1,-4.409022E-2,-9.493765E-2,9.262511E-2,2.0818411E-1,6.655869E-3,-7.627851E-2,1.03449106E-1,1.1279069E-2,1.2567692E-1,1.1001493E-1,5.0496418E-2,-7.701277E-2,8.487423E-2,7.6781563E-3,9.5714666E-2],"split_indices":[27,26,0,21,14,24,0,23,25,15,19,25,10,23,10,0,20,17,28,22,4,15,24,24,0,0,0,0,0,0,0,0,0,0,0,0,0,0,0,0,0,0,0],"split_type":[0,0,0,0,0,0,0,0,0,0,0,0,0,0,0,0,0,0,0,0,0,0,0,0,0,0,0,0,0,0,0,0,0,0,0,0,0,0,0,0,0,0,0],"sum_hessian":[6.5298438E3,3.9021897E3,2.6276543E3,3.0604275E3,8.4176215E2,3.014292E3,4.61355E1,4.692184E2,3.7254376E2,2.9140254E3,1.00266624E2,3.844304E2,8.478802E1,2.0636856E2,1.661752E2,1.0134015E1,2.9038914E3,5.7209644E1,4.305698E1,3.454197E2,3.9010677E1,7.37421E1,1.1045914E1,1.3821977E2,6.814879E1,1.7240561E0,1.6445116E2,2.84072E3,6.317156E1,5.4401142E1,2.8085034E0,1.423584E1,2.8821142E1,3.271994E2,1.8220322E1,1.4604455E1,2.4406221E1,4.8502026E1,2.524008E1,6.323831E0,4.7220826E0,9.6427414E1,4.1792355E1],"tree_param":{"num_deleted":"0","num_feature":"29","num_nodes":"43","size_leaf_vector":"1"}},{"base_weights":[2.4123983E-3,-6.8786275E-1,1.0409019E-1,-8.8963014E-1,4.0561724E-1,-9.349575E-1,1.0374578E-1,2.3923984E-2,1.0567985E0,-9.785593E-1,-5.1985476E-2,-2.8942987E-1,9.4321567E-1,1.0059518E0,1.7544844E0,-9.894238E-1,1.0939997E-1,-3.32761E-1,1.0664028E0,-4.4681862E-1,1.309988E0,-1.9619798E-2,9.6904296E-1,4.148594E-1,1.0247744E0,3.1347033E-1,8.673137E-2,-1.0102763E-1,-1.341518E-2,-6.884671E-2,6.8729386E-2,1.2914217E-1,-3.297078E-2,-5.9753347E-2,1.0150869E-1,5.4796554E-2,2.4316402E-1,9.854895E-2,-7.755005E-3,-1.3441558E-2,8.1659906E-2,1.0302675E-1,1.7807623E-2],"categories":[],"categories_nodes":[],"categories_segments":[],"categories_sizes":[],"default_left":[0,0,0,0,0,0,0,0,0,0,0,0,0,0,0,0,0,0,0,0,0,0,0,0,0,0,0,0,0,0,0,0,0,0,0,0,0,0,0,0,0,0,0],"id":25,"left_children":[1,3,-1,5,7,9,-1,11,13,15,17,19,21,23,25,27,-1,29,31,33,35,-1,37,39,41,-1,-1,-1,-1,-1,-1,-1,-1,-1,-1,-1,-1,-1,-1,-1,-1,-1,-1],"loss_changes":[4.28819E3,7.93187E2,0E0,2.6599146E2,1.3927863E2,1.1409253E2,0E0,1.0235411E2,5.581711E0,6.469971E1,4.449673E1,6.730645E1,2.8480682E0,1.7485199E0,1.2861156E1,4.999829E1,0E0,4.151946E1,9.362442E0,5.3937695E1,1.9180603E1,0E0,1.5995255E0,1.81099E0,6.940155E-1,0E0,0E0,0E0,0E0,0E0,0E0,0E0,0E0,0E0,0E0,0E0,0E0,0E0,0E0,0E0,0E0,0E0,0E0],"parents":[2147483647,0,0,1,1,3,3,4,4,5,5,7,7,8,8,9,9,10,10,11,11,12,12,13,13,14,14,15,15,17,17,18,18,19,19,20,20,22,22,23,23,24,24],"right_children":[2,4,-1,6,8,10,-1,12,14,16,18,20,22,24,26,28,-1,30,32,34,36,-1,38,40,42,-1,-1,-1,-1,-1,-1,-1,-1,-1,-1,-1,-1,-1,-1,-1,-1,-1,-1],"split_conditions":[3.0618617E-1,1E0,1.0409019E-1,1E0,1E0,1E0,1.0374578E-1,1E0,4E0,1E0,1E0,1E0,1E0,-2.3086569E-1,3E0,1E0,1.0939997E-1,-8.160534E-2,1.06992E2,1E0,1.12751E2,-1.9619798E-2,1.5422117E0,1E0,5.5E1,3.1347033E-1,8.673137E-2,-1.0102763E-1,-1.341518E-2,-6.884671E-2,6.8729386E-2,1.2914217E-1,-3.297078E-2,-5.9753347E-2,1.0150869E-1,5.4796554E-2,2.4316402E-1,9.854895E-2,-7.755005E-3,-1.3441558E-2,8.1659906E-2,1.0302675E-1,1.7807623E-2],"split_indices":[27,14,0,21,24,24,0,23,8,17,23,25,10,6,3,25,0,6,2,21,5,0,15,21,9,0,0,0,0,0,0,0,0,0,0,0,0,0,0,0,0,0,0],"split_type":[0,0,0,0,0,0,0,0,0,0,0,0,0,0,0,0,0,0,0,0,0,0,0,0,0,0,0,0,0,0,0,0,0,0,0,0,0,0,0,0,0,0,0],"sum_hessian":[5.980046E3,3.5924875E3,2.3875583E3,3.0330244E3,5.59463E2,2.9638267E3,6.9197815E1,3.5337006E2,2.0609297E2,2.8242546E3,1.3957204E2,2.6404996E2,8.932009E1,1.9436937E2,1.1723611E1,2.8100466E3,1.4207911E1,1.12125084E2,2.7446955E1,2.4105034E2,2.2999624E1,1.8335493E0,8.748654E1,6.7095256E0,1.8765984E2,3.595903E0,8.127708E0,2.7429883E3,6.705848E1,8.337591E1,2.8749174E1,2.370179E1,3.7451644E0,2.1905789E2,2.1992456E1,1.4581709E1,8.417916E0,8.61905E1,1.2960434E0,3.115416E0,3.5941093E0,1.862348E2,1.4250329E0],"tree_param":{"num_deleted":"0","num_feature":"29","num_nodes":"43","size_leaf_vector":"1"}},{"base_weights":[2.716452E-3,-6.74966E-1,1.03677325E-1,-9.29169E-1,2.0552073E-1,-9.589239E-1,1.0114463E-1,-9.372805E-2,1.0212082E0,-9.918365E-1,-1.1792761E-1,-3.7163457E-1,8.350737E-1,1.9856372E-1,1.036963E0,9.782757E-2,-9.99527E-1,-7.290696E-1,6.1446846E-1,-5.160104E-1,1.0247163E-1,9.201681E-1,1.8810268E-1,-8.3017565E-2,7.721195E-2,1.0450277E0,-8.129284E-3,-1.0044312E-1,1.0116724E-1,-1.047249E-1,4.0603053E-2,1.5932293E-1,-4.4520176E-3,-7.043227E-2,3.447482E-2,1.0024922E-1,2.6929373E-2,-4.444482E-2,6.9937676E-2,1.0659436E-1,5.857215E-2],"categories":[],"categories_nodes":[],"categories_segments":[],"categories_sizes":[],"default_left":[0,0,0,0,0,0,0,0,0,0,0,0,0,0,0,0,0,0,0,0,0,0,0,0,0,0,0,0,0,0,0,0,0,0,0,0,0,0,0,0,0],"id":26,"left_children":[1,3,-1,5,7,9,-1,11,13,15,17,19,21,23,25,-1,27,29,31,33,-1,35,37,-1,-1,39,-1,-1,-1,-1,-1,-1,-1,-1,-1,-1,-1,-1,-1,-1,-1],"loss_changes":[3.840129E3,7.41136E2,0E0,1.4930908E2,1.8132208E2,6.993115E1,0E0,1.4075087E2,2.3778687E0,3.787451E1,4.3616146E1,8.509512E1,6.74234E0,3.5811825E0,1.8469543E0,0E0,2.4947021E1,1.9578325E1,2.8716738E1,6.1972847E1,0E0,5.664551E0,5.439424E0,0E0,0E0,1.2398224E0,0E0,0E0,0E0,0E0,0E0,0E0,0E0,0E0,0E0,0E0,0E0,0E0,0E0,0E0,0E0],"parents":[2147483647,0,0,1,1,3,3,4,4,5,5,7,7,8,8,9,9,10,10,11,11,12,12,13,13,14,14,16,16,17,17,18,18,19,19,21,21,22,22,25,25],"right_children":[2,4,-1,6,8,10,-1,12,14,16,18,20,22,24,26,-1,28,30,32,34,-1,36,38,-1,-1,40,-1,-1,-1,-1,-1,-1,-1,-1,-1,-1,-1,-1,-1,-1,-1],"split_conditions":[3.0618617E-1,1E0,1.03677325E-1,1E0,1E0,1E0,1.0114463E-1,1E0,1E0,-1.62008E0,1E0,1E0,6E0,1E0,5.5E1,9.782757E-2,1E0,1E0,-9.099742E-1,7E0,1.0247163E-1,1E0,1E0,-8.3017565E-2,7.721195E-2,1.3E1,-8.129284E-3,-1.0044312E-1,1.0116724E-1,-1.047249E-1,4.0603053E-2,1.5932293E-1,-4.4520176E-3,-7.043227E-2,3.447482E-2,1.0024922E-1,2.6929373E-2,-4.444482E-2,6.9937676E-2,1.0659436E-1,5.857215E-2],"split_indices":[27,26,0,21,20,23,0,23,10,15,19,21,10,14,9,0,17,14,28,7,0,18,19,0,0,0,0,0,0,0,0,0,0,0,0,0,0,0,0,0,0],"split_type":[0,0,0,0,0,0,0,0,0,0,0,0,0,0,0,0,0,0,0,0,0,0,0,0,0,0,0,0,0,0,0,0,0,0,0,0,0,0,0,0,0],"sum_hessian":[5.477934E3,3.309414E3,2.1685198E3,2.5679675E3,7.4144653E2,2.5296865E3,3.828109E1,5.430899E2,1.9835664E2,2.4342424E3,9.544404E1,4.1847733E2,1.246126E2,3.9830358E0,1.9437361E2,8.9745865E0,2.4252678E3,5.20314E1,4.341264E1,3.7983472E2,3.8642597E1,1.0975459E2,1.4858005E1,1.2656054E0,2.7174304E0,1.9304684E2,1.3267599E0,2.4198677E3,5.400061E0,4.0700153E1,1.1331243E1,1.6897697E1,2.6514942E1,3.1180203E2,6.803267E1,9.6951706E1,1.280289E1,6.6997476E0,8.1582575E0,1.8337552E2,9.671327E0],"tree_param":{"num_deleted":"0","num_feature":"29","num_nodes":"41","size_leaf_vector":"1"}},{"base_weights":[2.8942416E-3,-6.623885E-1,1.03305794E-1,-9.1991353E-1,1.9661322E-1,-9.493625E-1,1.0053704E-1,-2.2933027E-1,7.471556E-1,-9.9756974E-1,-3.2276347E-1,-4.1404277E-1,9.0576184E-1,5.2702665E-1,1.0488125E0,-1.0150139E0,-4.707707E-1,-4.957131E-1,1.5449715E0,-6.202598E-1,5.3027153E-1,5.76405E-1,1.3070253E0,3.2813588E-1,1.0209336E-1,3.3701733E-2,1.0547034E-1,-1.0171809E-1,7.999887E-2,-9.017125E-2,7.578707E-2,-7.125439E-2,6.743197E-2,5.97008E-2,3.2947665E-1,-7.024819E-2,1.045058E-1,2.7030963E-2,1.0979706E-1,-2.696299E-2,7.726144E-2,-1.590619E-2,1.4684401E-1,6.54912E-3,9.6200794E-2],"categories":[],"categories_nodes":[],"categories_segments":[],"categories_sizes":[],"default_left":[0,0,0,0,0,0,0,0,0,0,0,0,0,0,0,0,0,0,0,0,0,0,0,0,0,0,0,0,0,0,0,0,0,0,0,0,0,0,0,0,0,0,0,0,0],"id":27,"left_children":[1,3,-1,5,7,9,-1,11,13,15,17,19,21,23,25,27,29,31,33,35,37,39,41,43,-1,-1,-1,-1,-1,-1,-1,-1,-1,-1,-1,-1,-1,-1,-1,-1,-1,-1,-1,-1,-1],"loss_changes":[3.4405278E3,6.749398E2,0E0,1.3401733E2,1.6534335E2,6.9517334E1,0E0,8.379726E1,1.986473E1,1.9246582E1,5.4597137E1,6.709981E1,6.6474037E0,1.7324375E1,1.8421936E-1,8.981445E0,3.8096798E1,3.9367836E1,2.1863232E1,3.9331726E1,8.852619E0,5.610647E0,6.0207863E0,2.1518911E1,0E0,0E0,0E0,0E0,0E0,0E0,0E0,0E0,0E0,0E0,0E0,0E0,0E0,0E0,0E0,0E0,0E0,0E0,0E0,0E0,0E0],"parents":[2147483647,0,0,1,1,3,3,4,4,5,5,7,7,8,8,9,9,10,10,11,11,12,12,13,13,14,14,15,15,16,16,17,17,18,18,19,19,20,20,21,21,22,22,23,23],"right_children":[2,4,-1,6,8,10,-1,12,14,16,18,20,22,24,26,28,30,32,34,36,38,40,42,44,-1,-1,-1,-1,-1,-1,-1,-1,-1,-1,-1,-1,-1,-1,-1,-1,-1,-1,-1,-1,-1],"split_conditions":[3.0618617E-1,1E0,1.03305794E-1,1E0,1E0,1E0,1.0053704E-1,1E0,1E0,1E0,1E0,1E0,9E0,1E0,1E0,1E0,1.1E1,1E0,1.12751E2,1E0,-9.926325E-2,3E0,-2.3010376E-1,4.7E1,1.0209336E-1,3.3701733E-2,1.0547034E-1,-1.0171809E-1,7.999887E-2,-9.017125E-2,7.578707E-2,-7.125439E-2,6.743197E-2,5.97008E-2,3.2947665E-1,-7.024819E-2,1.045058E-1,2.7030963E-2,1.0979706E-1,-2.696299E-2,7.726144E-2,-1.590619E-2,1.4684401E-1,6.54912E-3,9.6200794E-2],"split_indices":[27,26,0,21,14,14,0,20,25,24,25,24,13,21,10,17,0,23,5,17,6,10,6,9,0,0,0,0,0,0,0,0,0,0,0,0,0,0,0,0,0,0,0,0,0],"split_type":[0,0,0,0,0,0,0,0,0,0,0,0,0,0,0,0,0,0,0,0,0,0,0,0,0,0,0,0,0,0,0,0,0,0,0,0,0,0,0,0,0,0,0,0,0],"sum_hessian":[5.0181035E3,3.0492476E3,1.9688561E3,2.3458892E3,7.033584E2,2.3110466E3,3.4842644E1,3.9688217E2,3.0647626E2,2.1453987E3,1.6564786E2,3.418831E2,5.4999084E1,1.7876944E2,1.2770682E2,2.075737E3,6.966162E1,1.522814E2,1.3366454E1,2.8088684E2,6.0996223E1,3.1544146E1,2.345494E1,1.2863425E2,5.013519E1,1.5260177E0,1.261808E2,2.073701E3,2.036253E0,5.1769672E1,1.7891949E1,1.2880267E2,2.3478735E1,9.539533E0,3.826921E0,2.6822205E2,1.2664806E1,4.285029E1,1.8145937E1,5.867951E0,2.5676195E1,2.3276947E0,2.1127247E1,9.1729485E1,3.6904762E1],"tree_param":{"num_deleted":"0","num_feature":"29","num_nodes":"45","size_leaf_vector":"1"}},{"base_weights":[3.1367508E-3,-6.489309E-1,1.0297104E-1,-9.0951407E-1,1.8822461E-1,-9.3860537E-1,9.994339E-2,-8.576781E-2,1.0078028E0,-9.706064E-1,1.00618176E-1,-2.7604795E-1,1.02697015E-1,4.7401077E-1,1.0575643E0,-9.938066E-1,1.0106416E-3,-1.4515427E-1,2.9486985E0,-4.9406353E-1,5.2035654E-1,6.858586E-1,-5.2384496E-1,-1.8725745E-1,1.0788984E0,-1.00077115E-1,1.0307088E-1,-8.1774384E-2,1.2985471E-1,-6.437826E-2,1.1179222E-1,-4.5484356E-3,4.6576157E-1,-6.077927E-2,1.0358568E-1,-7.704819E-2,1.1111259E-1,7.9587236E-2,-1.2505384E-2,-7.536684E-2,-3.2801125E-3,4.6849824E-2,-8.640327E-2,1.1262508E-1,6.610006E-2],"categories":[],"categories_nodes":[],"categories_segments":[],"categories_sizes":[],"default_left":[0,0,0,0,0,0,0,0,0,0,0,0,0,0,0,0,0,0,0,0,0,0,0,0,0,0,0,0,0,0,0,0,0,0,0,0,0,0,0,0,0,0,0,0,0],"id":28,"left_children":[1,3,-1,5,7,9,-1,11,13,15,17,19,-1,21,23,25,27,29,31,33,35,37,39,41,43,-1,-1,-1,-1,-1,-1,-1,-1,-1,-1,-1,-1,-1,-1,-1,-1,-1,-1,-1,-1],"loss_changes":[3.0811726E3,6.1424194E2,0E0,1.2016235E2,1.5032465E2,7.044043E1,0E0,1.06643616E2,3.9533386E0,4.62583E1,4.529198E1,7.487677E1,0E0,3.765473E0,4.2544556E0,2.9290771E1,5.296426E1,3.8479588E1,2.6504158E1,5.942569E1,7.1663025E1,1.3238893E0,3.577091E-1,1.9240134E0,2.2271576E0,0E0,0E0,0E0,0E0,0E0,0E0,0E0,0E0,0E0,0E0,0E0,0E0,0E0,0E0,0E0,0E0,0E0,0E0,0E0,0E0],"parents":[2147483647,0,0,1,1,3,3,4,4,5,5,7,7,8,8,9,9,10,10,11,11,13,13,14,14,15,15,16,16,17,17,18,18,19,19,20,20,21,21,22,22,23,23,24,24],"right_children":[2,4,-1,6,8,10,-1,12,14,16,18,20,-1,22,24,26,28,30,32,34,36,38,40,42,44,-1,-1,-1,-1,-1,-1,-1,-1,-1,-1,-1,-1,-1,-1,-1,-1,-1,-1,-1,-1],"split_conditions":[3.0618617E-1,1E0,1.0297104E-1,1E0,1E0,1E0,9.994339E-2,1E0,-2.2976603E-1,1E0,5.5E1,7E0,1.02697015E-1,3.74525E-1,1E0,1E0,3.7E1,1E0,1.2E1,1E0,2.0268023E-2,-5.147E0,1.9E1,2E0,6E0,-1.00077115E-1,1.0307088E-1,-8.1774384E-2,1.2985471E-1,-6.437826E-2,1.1179222E-1,-4.5484356E-3,4.6576157E-1,-6.077927E-2,1.0358568E-1,-7.704819E-2,1.1111259E-1,7.9587236E-2,-1.2505384E-2,-7.536684E-2,-3.2801125E-3,4.6849824E-2,-8.640327E-2,1.1262508E-1,6.610006E-2],"split_indices":[27,26,0,21,25,20,0,21,6,25,9,7,0,15,10,17,9,23,0,22,27,4,9,12,10,0,0,0,0,0,0,0,0,0,0,0,0,0,0,0,0,0,0,0,0],"split_type":[0,0,0,0,0,0,0,0,0,0,0,0,0,0,0,0,0,0,0,0,0,0,0,0,0,0,0,0,0,0,0,0,0,0,0,0,0,0,0,0,0,0,0,0,0],"sum_hessian":[4.60092E3,2.8139192E3,1.7870009E3,2.1458801E3,6.6803906E2,2.1141697E3,3.171044E1,5.0133392E2,1.6670511E2,2.0510764E3,6.309324E1,4.287661E2,7.256783E1,1.5113019E1,1.5159209E2,2.0032208E3,4.7855564E1,5.8954823E1,4.1384172E0,3.3691525E2,9.185086E1,1.2724282E1,2.3887367E0,2.4232044E0,1.4916888E2,1.996857E3,6.3637395E0,2.956783E1,1.8287733E1,4.2619934E1,1.6334888E1,1.857423E0,2.2809944E0,3.1416406E2,2.2751179E1,2.874295E1,6.310791E1,1.1220573E1,1.5037091E0,1.2628537E0,1.125883E0,1.387016E0,1.0361884E0,1.324642E2,1.670468E1],"tree_param":{"num_deleted":"0","num_feature":"29","num_nodes":"45","size_leaf_vector":"1"}},{"base_weights":[3.385576E-3,-6.355298E-1,1.0266899E-1,-8.9888805E-1,1.8025316E-1,-9.543681E-1,1.6512729E-1,-8.719669E-2,9.734778E-1,1.00107074E-1,-9.7107506E-1,-5.6822324E-1,8.449728E-1,-3.3893523E-1,7.8501093E-1,1.0014396E0,4.17216E-1,-9.910184E-1,-1.4683843E-1,-7.6467824E-1,8.6333066E-2,1.748727E0,3.645032E-1,-4.6175483E-1,1.00703E-1,8.709566E-1,1.753642E-1,2.2945884E-1,1.0178545E0,-4.333682E-1,8.7328866E-2,-1.0120281E-1,-2.3516467E-2,-4.9325373E-2,2.4078842E-1,-8.901939E-2,8.670647E-2,4.4929338E-1,9.732347E-2,-1.6818793E-2,1.2527393E-1,-1.0262956E-1,-2.253822E-2,9.586563E-2,2.260082E-2,-2.9190108E-2,8.146848E-2,-7.418003E-2,7.4205965E-2,6.089703E-2,1.0514126E-1,-9.5134735E-2,5.231147E-2],"categories":[],"categories_nodes":[],"categories_segments":[],"categories_sizes":[],"default_left":[0,0,0,0,0,0,0,0,0,0,0,0,0,0,0,0,0,0,0,0,0,0,0,0,0,0,0,0,0,0,0,0,0,0,0,0,0,0,0,0,0,0,0,0,0,0,0,0,0,0,0,0,0],"id":29,"left_children":[1,3,-1,5,7,9,11,13,15,-1,17,19,21,23,25,27,29,31,33,35,-1,37,39,41,-1,43,45,47,49,51,-1,-1,-1,-1,-1,-1,-1,-1,-1,-1,-1,-1,-1,-1,-1,-1,-1,-1,-1,-1,-1,-1,-1],"loss_changes":[2.7597322E3,5.584487E2,0E0,1.1612976E2,1.3479898E2,6.1977905E1,4.944579E1,1.0473728E2,2.0739136E0,0E0,3.0298584E1,1.411598E1,2.1667881E1,6.1618824E1,5.4469147E0,1.6902771E0,4.0177813E0,2.8475464E1,4.0948547E1,9.497145E0,0E0,3.3011158E1,1.6677084E1,4.5096817E1,0E0,5.066986E0,4.5565157E0,2.7669554E0,1.3954926E0,2.4510856E0,0E0,0E0,0E0,0E0,0E0,0E0,0E0,0E0,0E0,0E0,0E0,0E0,0E0,0E0,0E0,0E0,0E0,0E0,0E0,0E0,0E0,0E0,0E0],"parents":[2147483647,0,0,1,1,3,3,4,4,5,5,6,6,7,7,8,8,10,10,11,11,12,12,13,13,14,14,15,15,16,16,17,17,18,18,19,19,21,21,22,22,23,23,25,25,26,26,27,27,28,28,29,29],"right_children":[2,4,-1,6,8,10,12,14,16,-1,18,20,22,24,26,28,30,32,34,36,-1,38,40,42,-1,44,46,48,50,52,-1,-1,-1,-1,-1,-1,-1,-1,-1,-1,-1,-1,-1,-1,-1,-1,-1,-1,-1,-1,-1,-1,-1],"split_conditions":[3.0618617E-1,1E0,1.0266899E-1,1E0,1E0,-1.62008E0,1E0,1E0,1.3E1,1.00107074E-1,1E0,1E0,-9.080584E-1,1E0,6E0,1E0,1E0,1E0,5.6651527E-1,1E0,8.6333066E-2,2E0,1E0,-2.2976603E-1,1.00703E-1,1E0,1E0,1E0,-9.1935325E-1,1E0,8.7328866E-2,-1.0120281E-1,-2.3516467E-2,-4.9325373E-2,2.4078842E-1,-8.901939E-2,8.670647E-2,4.4929338E-1,9.732347E-2,-1.6818793E-2,1.2527393E-1,-1.0262956E-1,-2.253822E-2,9.586563E-2,2.260082E-2,-2.9190108E-2,8.146848E-2,-7.418003E-2,7.4205965E-2,6.089703E-2,1.0514126E-1,-9.5134735E-2,5.231147E-2],"split_indices":[27,26,0,24,20,15,19,23,0,0,25,21,28,21,10,10,14,20,6,17,0,3,23,6,0,18,24,14,28,21,0,0,0,0,0,0,0,0,0,0,0,0,0,0,0,0,0,0,0,0,0,0,0],"split_type":[0,0,0,0,0,0,0,0,0,0,0,0,0,0,0,0,0,0,0,0,0,0,0,0,0,0,0,0,0,0,0,0,0,0,0,0,0,0,0,0,0,0,0,0,0,0,0,0,0,0,0,0,0],"sum_hessian":[4.219035E3,2.5975776E3,1.6214575E3,1.9635767E3,6.3400104E2,1.8663635E3,9.721318E1,4.7480286E2,1.591982E2,1.5311692E1,1.8510518E3,4.684528E1,5.03679E1,3.689322E2,1.0587065E2,1.5081676E2,8.381442E0,1.807124E3,4.3927773E1,4.1601997E1,5.2432847E0,1.6566675E1,3.3801224E1,3.3868414E2,3.024806E1,9.2413864E1,1.3456783E1,3.4519727E0,1.4736478E2,2.9428163E0,5.4386263E0,1.757922E3,4.9202026E1,3.9393074E1,4.534698E0,3.9052483E1,2.5495124E0,2.5939395E0,1.3972735E1,2.1636234E1,1.216499E1,9.8969185E1,2.3971495E2,8.092352E1,1.1490341E1,8.088498E0,5.368285E0,1.0380256E0,2.413947E0,1.2629464E1,1.347353E2,1.9124866E0,1.0303296E0],"tree_param":{"num_deleted":"0","num_feature":"29","num_nodes":"53","size_leaf_vector":"1"}},{"base_weights":[3.6432568E-3,-6.2129587E-1,1.0239609E-1,-8.3302397E-1,4.0409577E-1,-8.7719554E-1,1.0124751E-1,6.7150354E-2,1.0352777E0,-9.765056E-1,-3.562761E-1,-1.2537761E-1,1.0848666E0,9.709926E-1,1.7653773E0,-9.974186E-1,-3.4021166E-1,-5.628532E-1,4.5059255E-1,-3.2561144E-1,9.008874E-1,9.4917023E-1,2.952022E-1,3.42626E-1,9.925955E-1,3.7006664E-1,1.1397725E0,8.429759E-2,-1.00245275E-1,-6.214709E-2,2.3796144E-1,-6.4796686E-2,1.0090947E-1,-2.6103897E-2,9.409777E-2,-6.897837E-2,9.78345E-3,9.638248E-2,-2.2806216E-2,8.2514785E-2,2.0317054E-1,6.985363E-2,-1.8217813E-2,1.00017585E-1,8.992228E-3,3.371306E-2,1.2166466E-1],"categories":[],"categories_nodes":[],"categories_segments":[],"categories_sizes":[],"default_left":[0,0,0,0,0,0,0,0,0,0,0,0,0,0,0,0,0,0,0,0,0,0,0,0,0,0,0,0,0,0,0,0,0,0,0,0,0,0,0,0,0,0,0,0,0,0,0],"id":30,"left_children":[1,3,-1,5,7,9,-1,11,13,15,17,19,21,23,25,27,29,31,33,35,37,39,-1,41,43,-1,45,-1,-1,-1,-1,-1,-1,-1,-1,-1,-1,-1,-1,-1,-1,-1,-1,-1,-1,-1,-1],"loss_changes":[2.4708083E3,5.220556E2,0E0,1.6328381E2,8.7541695E1,1.00328735E2,0E0,5.2970066E1,5.011795E0,2.140271E1,5.2454693E1,4.707305E1,8.092613E0,1.4779587E0,8.342854E0,1.5496582E1,4.2413242E1,3.407396E1,2.271706E1,2.9554394E1,2.879345E0,3.9033318E0,0E0,1.2439516E0,7.9242706E-1,0E0,1.6275215E-1,0E0,0E0,0E0,0E0,0E0,0E0,0E0,0E0,0E0,0E0,0E0,0E0,0E0,0E0,0E0,0E0,0E0,0E0,0E0,0E0],"parents":[2147483647,0,0,1,1,3,3,4,4,5,5,7,7,8,8,9,9,10,10,11,11,12,12,13,13,14,14,15,15,16,16,17,17,18,18,19,19,20,20,21,21,23,23,24,24,26,26],"right_children":[2,4,-1,6,8,10,-1,12,14,16,18,20,22,24,26,28,30,32,34,36,38,40,-1,42,44,-1,46,-1,-1,-1,-1,-1,-1,-1,-1,-1,-1,-1,-1,-1,-1,-1,-1,-1,-1,-1,-1],"split_conditions":[3.0618617E-1,1E0,1.0239609E-1,1E0,1E0,1E0,1.0124751E-1,1E0,4E0,1E0,7E0,1E0,5.4E1,-2.3086569E-1,2E0,-1.62008E0,1E0,1E0,2.0268023E-2,1E0,1.1625514E0,6.2608457E-1,2.952022E-1,-7.653816E-1,5.5E1,3.7006664E-1,-2.2983982E-1,8.429759E-2,-1.00245275E-1,-6.214709E-2,2.3796144E-1,-6.4796686E-2,1.0090947E-1,-2.6103897E-2,9.409777E-2,-6.897837E-2,9.78345E-3,9.638248E-2,-2.2806216E-2,8.2514785E-2,2.0317054E-1,6.985363E-2,-1.8217813E-2,1.00017585E-1,8.992228E-3,3.371306E-2,1.2166466E-1],"split_indices":[27,14,0,21,24,26,0,25,8,23,7,20,9,6,3,15,25,22,27,26,15,6,0,15,9,0,6,0,0,0,0,0,0,0,0,0,0,0,0,0,0,0,0,0,0,0,0],"split_type":[0,0,0,0,0,0,0,0,0,0,0,0,0,0,0,0,0,0,0,0,0,0,0,0,0,0,0,0,0,0,0,0,0,0,0,0,0,0,0,0,0,0,0,0,0,0,0],"sum_hessian":[3.872951E3,2.4020806E3,1.4708704E3,1.9911295E3,4.10951E2,1.9450988E3,4.6030823E1,2.6864563E2,1.4230536E2,1.6329185E3,3.1218024E2,2.2664629E2,4.199934E1,1.3293079E2,9.374575E0,1.5804078E3,5.2510662E1,2.4878732E2,6.3392918E1,1.902161E2,3.64302E1,4.0559975E1,1.4393648E0,4.9785547E0,1.2795223E2,1.0893532E0,8.285222E0,3.857103E0,1.5765507E3,4.8288605E1,4.222057E0,2.3656616E2,1.2221161E1,2.6053127E1,3.733979E1,1.0192742E2,8.8288666E1,3.464505E1,1.7851473E0,3.7971897E1,2.5880766E0,2.769381E0,2.2091734E0,1.2677956E2,1.1726758E0,1.194889E0,7.090333E0],"tree_param":{"num_deleted":"0","num_feature":"29","num_nodes":"47","size_leaf_vector":"1"}},{"base_weights":[4.1006287E-3,-6.0699195E-1,1.0214915E-1,-8.1944335E-1,3.863066E-1,-9.5560473E-1,-2.0392345E-1,6.462094E-2,1.014724E0,-9.691895E-1,9.327135E-2,-3.7472478E-1,8.843988E-1,-1.8314014E-1,8.2395214E-1,9.5257056E-1,1.670389E0,-9.8958844E-1,-2.0911694E-1,-4.9379596E-1,1.0116593E-1,1.0643592E0,-2.4563159E-1,-3.2134157E-1,1.0182456E0,-2.8324086E-2,8.554746E-1,3.2627055E-1,9.7527266E-1,2.4334164E-1,7.81162E-2,-1.00733094E-1,-2.6969237E-2,-6.006371E-2,2.949919E-1,-6.2178817E-2,6.2259443E-2,4.2186957E-2,1.4291209E-1,-7.584341E-2,7.4940816E-2,3.1330224E-2,-5.8611758E-2,4.0132767E-3,1.567592E-1,8.993522E-2,2.4650471E-2,7.2288096E-2,-1.2870072E-2,9.833582E-2,8.540873E-3],"categories":[],"categories_nodes":[],"categories_segments":[],"categories_sizes":[],"default_left":[0,0,0,0,0,0,0,0,0,0,0,0,0,0,0,0,0,0,0,0,0,0,0,0,0,0,0,0,0,0,0,0,0,0,0,0,0,0,0,0,0,0,0,0,0,0,0,0,0,0,0],"id":31,"left_children":[1,3,-1,5,7,9,11,13,15,17,-1,19,21,23,25,27,29,31,33,35,-1,37,39,41,43,-1,45,47,49,-1,-1,-1,-1,-1,-1,-1,-1,-1,-1,-1,-1,-1,-1,-1,-1,-1,-1,-1,-1,-1,-1],"loss_changes":[2.211767E3,4.693344E2,0E0,1.5328247E2,7.923664E1,3.936377E1,6.2229694E1,4.9166138E1,3.818756E0,2.2880127E1,0E0,4.812814E1,9.50782E0,3.3078518E1,2.485695E0,1.4389725E0,4.997856E0,1.8246948E1,5.1475674E1,3.844896E1,0E0,8.632874E0,4.1701193E0,3.003856E1,1.1000776E1,0E0,1.4549179E0,1.1442692E0,7.704849E-1,0E0,0E0,0E0,0E0,0E0,0E0,0E0,0E0,0E0,0E0,0E0,0E0,0E0,0E0,0E0,0E0,0E0,0E0,0E0,0E0,0E0,0E0],"parents":[2147483647,0,0,1,1,3,3,4,4,5,5,6,6,7,7,8,8,9,9,11,11,12,12,13,13,14,14,15,15,16,16,17,17,18,18,19,19,21,21,22,22,23,23,24,24,26,26,27,27,28,28],"right_children":[2,4,-1,6,8,10,12,14,16,18,-1,20,22,24,26,28,30,32,34,36,-1,38,40,42,44,-1,46,48,50,-1,-1,-1,-1,-1,-1,-1,-1,-1,-1,-1,-1,-1,-1,-1,-1,-1,-1,-1,-1,-1,-1],"split_conditions":[3.0618617E-1,1E0,1.0214915E-1,1E0,1E0,1E0,1E0,1E0,4E0,1E0,9.327135E-2,1E0,6E0,1E0,1E0,-2.3086569E-1,3E0,1E0,5.5E1,1E0,1.0116593E-1,-6.186E0,1E0,-9.0540963E-1,2.0268023E-2,-2.8324086E-2,1.1522E2,-1.62008E0,5.5E1,2.4334164E-1,7.81162E-2,-1.00733094E-1,-2.6969237E-2,-6.006371E-2,2.949919E-1,-6.2178817E-2,6.2259443E-2,4.2186957E-2,1.4291209E-1,-7.584341E-2,7.4940816E-2,3.1330224E-2,-5.8611758E-2,4.0132767E-3,1.567592E-1,8.993522E-2,2.4650471E-2,7.2288096E-2,-1.2870072E-2,9.833582E-2,8.540873E-3],"split_indices":[27,14,0,26,24,21,25,23,8,20,0,22,10,25,10,6,3,25,9,20,0,4,24,28,27,0,2,15,9,0,0,0,0,0,0,0,0,0,0,0,0,0,0,0,0,0,0,0,0,0,0],"split_type":[0,0,0,0,0,0,0,0,0,0,0,0,0,0,0,0,0,0,0,0,0,0,0,0,0,0,0,0,0,0,0,0,0,0,0,0,0,0,0,0,0,0,0,0,0,0,0,0,0,0,0],"sum_hessian":[3.5554998E3,2.2215415E3,1.3339583E3,1.8302532E3,3.9128827E2,1.4982643E3,3.3198895E2,2.595354E2,1.3175284E2,1.4880458E3,1.0218429E1,2.875211E2,4.446788E1,1.9625761E2,6.32778E1,1.2258526E2,9.167583E0,1.4488593E3,3.9186604E1,2.6537305E2,2.2148043E1,3.8409225E1,6.0586576E0,1.7666722E2,1.9590391E1,1.5306304E0,6.1747173E1,4.8257422E0,1.1775952E2,3.9993076E0,5.1682763E0,1.4136201E3,3.5239162E1,3.558606E1,3.6005473E0,2.3847531E2,2.6897738E1,1.469032E1,2.3718904E1,4.1550837E0,1.903574E0,5.1954292E1,1.2471293E2,7.431551E0,1.2158839E1,5.7152378E1,4.5947957E0,2.2636282E0,2.562114E0,1.1659505E2,1.1644707E0],"tree_param":{"num_deleted":"0","num_feature":"29","num_nodes":"51","size_leaf_vector":"1"}},{"base_weights":[4.44929E-3,-5.9155035E-1,1.0192531E-1,-8.6629117E-1,1.641747E-1,-9.302046E-1,2.0551877E-1,-7.370005E-2,9.608475E-1,9.786506E-2,-9.4616616E-1,-4.9716827E-1,7.858956E-1,-2.3436873E-1,1.0123151E-1,-2.895356E-1,9.8423505E-1,-9.772151E-1,-2.0165993E-1,-9.5277235E-2,4.1416237E-1,3.400827E-1,1.5602311E0,-4.2317465E-1,5.797176E-1,3.757519E-2,-8.302023E-2,3.8265973E-1,1.0466487E0,-9.9507816E-2,-3.37677E-2,-5.0857216E-2,1.4355338E-1,-8.44903E-3,8.589166E-2,-2.4917988E-2,8.993394E-2,2.561554E-1,4.9749445E-2,-6.0365733E-2,3.2356095E-2,-4.682566E-2,6.994464E-2,5.891594E-2,-4.775082E-2,1.1037333E-1,5.8426954E-2],"categories":[],"categories_nodes":[],"categories_segments":[],"categories_sizes":[],"default_left":[0,0,0,0,0,0,0,0,0,0,0,0,0,0,0,0,0,0,0,0,0,0,0,0,0,0,0,0,0,0,0,0,0,0,0,0,0,0,0,0,0,0,0,0,0,0,0],"id":32,"left_children":[1,3,-1,5,7,9,11,13,15,-1,17,19,21,23,-1,25,27,29,31,-1,33,35,37,39,41,-1,-1,43,45,-1,-1,-1,-1,-1,-1,-1,-1,-1,-1,-1,-1,-1,-1,-1,-1,-1,-1],"loss_changes":[1.9787909E3,4.280985E2,0E0,1.0375244E2,1.0437316E2,4.440088E1,3.542077E1,7.435343E1,3.9878159E0,0E0,3.252527E1,1.6781143E1,1.5842335E1,5.7243843E1,0E0,1.4261444E0,4.2749405E0,1.5185059E1,2.9839064E1,0E0,3.1444564E0,1.0564812E1,1.6870056E1,4.0842377E1,9.140144E0,0E0,0E0,2.640417E0,2.3177414E0,0E0,0E0,0E0,0E0,0E0,0E0,0E0,0E0,0E0,0E0,0E0,0E0,0E0,0E0,0E0,0E0,0E0,0E0],"parents":[2147483647,0,0,1,1,3,3,4,4,5,5,6,6,7,7,8,8,10,10,11,11,12,12,13,13,15,15,16,16,17,17,18,18,20,20,21,21,22,22,23,23,24,24,27,27,28,28],"right_children":[2,4,-1,6,8,10,12,14,16,-1,18,20,22,24,-1,26,28,30,32,-1,34,36,38,40,42,-1,-1,44,46,-1,-1,-1,-1,-1,-1,-1,-1,-1,-1,-1,-1,-1,-1,-1,-1,-1,-1],"split_conditions":[3.0618617E-1,1E0,1.0192531E-1,1E0,1E0,-1.62008E0,1E0,1E0,1E0,9.786506E-2,1E0,1E0,6E0,1E0,1.0123151E-1,2E0,-2.2976603E-1,1E0,1E0,-9.5277235E-2,1E0,1E0,-9.099742E-1,4.8E1,-2.2983982E-1,3.757519E-2,-8.302023E-2,3.74525E-1,6E0,-9.9507816E-2,-3.37677E-2,-5.0857216E-2,1.4355338E-1,-8.44903E-3,8.589166E-2,-2.4917988E-2,8.993394E-2,2.561554E-1,4.9749445E-2,-6.0365733E-2,3.2356095E-2,-4.682566E-2,6.994464E-2,5.891594E-2,-4.775082E-2,1.1037333E-1,5.8426954E-2],"split_indices":[27,26,0,23,25,15,19,21,10,0,24,14,10,24,0,12,6,25,20,0,20,14,28,9,6,0,0,15,10,0,0,0,0,0,0,0,0,0,0,0,0,0,0,0,0,0,0],"split_type":[0,0,0,0,0,0,0,0,0,0,0,0,0,0,0,0,0,0,0,0,0,0,0,0,0,0,0,0,0,0,0,0,0,0,0,0,0,0,0,0,0,0,0,0,0,0,0],"sum_hessian":[3.2696902E3,2.0601628E3,1.2095273E3,1.5107789E3,5.493839E2,1.4258838E3,8.4895164E1,4.2376227E2,1.25621666E2,1.1324034E1,1.4145597E3,3.8466045E1,4.6429115E1,3.6983224E2,5.3930016E1,2.0975761E0,1.2352409E2,1.3576284E3,5.693125E1,2.5614862E1,1.2851184E1,3.0378378E1,1.6050737E1,3.0059686E2,6.923537E1,1.077159E0,1.0204172E0,1.228134E1,1.1124275E2,1.320198E3,3.7430492E1,4.8524162E1,8.40709E0,6.4403625E0,6.410822E0,1.506234E1,1.5316039E1,7.538004E0,8.512733E0,2.4224013E2,5.8356747E1,6.8004804E0,6.2434887E1,1.0157826E1,2.123514E0,9.778349E1,1.3459258E1],"tree_param":{"num_deleted":"0","num_feature":"29","num_nodes":"47","size_leaf_vector":"1"}},{"base_weights":[4.6690167E-3,-5.768113E-1,1.017221E-1,-7.9320514E-1,3.766669E-1,-8.741195E-1,2.92494E-1,8.600972E-2,9.8503405E-1,-9.7546893E-1,-3.8633192E-1,8.124791E-2,1.3741968E0,-7.79333E-2,9.905123E-1,9.226811E-1,1.5746458E0,-9.95764E-1,-2.508433E-1,-5.328645E-1,6.5192777E-1,-3.7599033E-1,5.3987795E-1,8.443303E-1,2.5988858E0,-2.560419E-1,8.452449E-1,7.066664E-1,1.5875973E0,2.9660833E-1,9.47181E-1,2.727811E-1,1.0060476E0,-1.0001167E-1,7.314887E-2,-7.038784E-2,2.4721627E-1,-8.414634E-2,-4.057232E-3,-1.3300918E-2,1.1062808E-1,-9.505446E-2,2.2693869E-2,7.888958E-2,-1.9358493E-2,3.4422867E-3,1.0084482E-1,1.2900375E-1,3.742208E-1,1.49386795E-2,-6.292121E-2,9.074576E-2,-2.4240065E-2,-1.9911012E-2,9.596832E-2,2.462008E-1,7.052303E-2,6.888426E-2,-1.270106E-2,9.564821E-2,3.9537204E-3,2.7342847E-2,1.080989E-1],"categories":[],"categories_nodes":[],"categories_segments":[],"categories_sizes":[],"default_left":[0,0,0,0,0,0,0,0,0,0,0,0,0,0,0,0,0,0,0,0,0,0,0,0,0,0,0,0,0,0,0,0,0,0,0,0,0,0,0,0,0,0,0,0,0,0,0,0,0,0,0,0,0,0,0,0,0,0,0,0,0,0,0],"id":33,"left_children":[1,3,-1,5,7,9,11,13,15,17,19,21,23,25,27,29,31,33,35,37,39,41,43,45,47,49,51,53,55,57,59,-1,61,-1,-1,-1,-1,-1,-1,-1,-1,-1,-1,-1,-1,-1,-1,-1,-1,-1,-1,-1,-1,-1,-1,-1,-1,-1,-1,-1,-1,-1,-1],"loss_changes":[1.7714269E3,3.9461774E2,0E0,1.3711987E2,6.254458E1,7.131409E1,2.4751196E1,3.5780525E1,2.753418E0,1.7398193E1,3.8553272E1,1.9514984E1,9.300861E0,3.3883434E1,5.1517677E0,1.3432083E0,3.5025043E0,9.505249E0,4.3721222E1,3.3482113E1,1.1384239E1,1.639521E1,8.6250105E0,1.8056841E0,2.457653E0,2.617824E1,2.476406E0,6.3541E0,6.8473473E0,9.919696E-1,8.1858826E-1,0E0,1.417427E-1,0E0,0E0,0E0,0E0,0E0,0E0,0E0,0E0,0E0,0E0,0E0,0E0,0E0,0E0,0E0,0E0,0E0,0E0,0E0,0E0,0E0,0E0,0E0,0E0,0E0,0E0,0E0,0E0,0E0,0E0],"parents":[2147483647,0,0,1,1,3,3,4,4,5,5,6,6,7,7,8,8,9,9,10,10,11,11,12,12,13,13,14,14,15,15,16,16,17,17,18,18,19,19,20,20,21,21,22,22,23,23,24,24,25,25,26,26,27,27,28,28,29,29,30,30,32,32],"right_children":[2,4,-1,6,8,10,12,14,16,18,20,22,24,26,28,30,32,34,36,38,40,42,44,46,48,50,52,54,56,58,60,-1,62,-1,-1,-1,-1,-1,-1,-1,-1,-1,-1,-1,-1,-1,-1,-1,-1,-1,-1,-1,-1,-1,-1,-1,-1,-1,-1,-1,-1,-1,-1],"split_conditions":[3.0618617E-1,1E0,1.017221E-1,1E0,1E0,1E0,1E0,1E0,4E0,1E0,1E0,1E0,1.3E1,1E0,1.12751E2,-2.3086569E-1,2E0,1E0,5.5E1,1E0,4E0,1E0,-2.0637701E-1,1E0,7E0,-7.0804965E-1,1.1625514E0,1E0,-4.4155452E-1,-1.62008E0,5.5E1,2.727811E-1,-2.2983982E-1,-1.0001167E-1,7.314887E-2,-7.038784E-2,2.4721627E-1,-8.414634E-2,-4.057232E-3,-1.3300918E-2,1.1062808E-1,-9.505446E-2,2.2693869E-2,7.888958E-2,-1.9358493E-2,3.4422867E-3,1.0084482E-1,1.2900375E-1,3.742208E-1,1.49386795E-2,-6.292121E-2,9.074576E-2,-2.4240065E-2,-1.9911012E-2,9.596832E-2,2.462008E-1,7.052303E-2,6.888426E-2,-1.270106E-2,9.564821E-2,3.9537204E-3,2.7342847E-2,1.080989E-1],"split_indices":[27,14,0,23,24,26,25,25,8,20,25,26,0,20,5,6,3,21,9,19,7,19,6,26,7,28,15,26,28,15,9,0,6,0,0,0,0,0,0,0,0,0,0,0,0,0,0,0,0,0,0,0,0,0,0,0,0,0,0,0,0,0,0],"split_type":[0,0,0,0,0,0,0,0,0,0,0,0,0,0,0,0,0,0,0,0,0,0,0,0,0,0,0,0,0,0,0,0,0,0,0,0,0,0,0,0,0,0,0,0,0,0,0,0,0,0,0,0,0,0,0,0,0,0,0,0,0,0,0],"sum_hessian":[3.0066477E3,1.9101387E3,1.096509E3,1.5569532E3,3.5318552E2,1.4491469E3,1.0780633E2,2.3977197E2,1.1341354E2,1.1990219E3,2.5012497E2,9.109205E1,1.6714283E1,2.0375482E2,3.6017155E1,1.0488643E2,8.527112E0,1.165991E3,3.3030907E1,2.1961661E2,3.0508362E1,4.5705467E1,4.538658E1,1.2845884E1,3.8683987E0,1.7140779E2,3.2347027E1,2.589199E1,1.0125166E1,4.4434924E0,1.0044294E2,1.5619385E0,6.9651737E0,1.16348E3,2.5109823E0,2.8955069E1,4.075839E0,1.3455809E2,8.5058525E1,1.1444383E1,1.9063978E1,2.3108213E1,2.2597254E1,3.3826557E1,1.1560024E1,2.368296E0,1.0477589E1,2.7959661E0,1.0724325E0,8.244047E1,8.896733E1,3.0753607E1,1.593421E0,5.699907E0,2.0192083E1,4.1863413E0,5.9388247E0,1.9821259E0,2.4613667E0,9.937083E1,1.07211E0,1.0777521E0,5.8874216E0],"tree_param":{"num_deleted":"0","num_feature":"29","num_nodes":"63","size_leaf_vector":"1"}},{"base_weights":[5.1460126E-3,-5.596794E-1,1.0153717E-1,-8.4268254E-1,1.54024E-1,-9.106518E-1,2.231225E-1,-7.160381E-2,9.184489E-1,9.785068E-2,-9.3153846E-1,-5.047406E-1,7.989011E-1,-2.8295624E-1,6.935567E-1,5.9966266E-1,9.9771553E-1,-9.6045744E-1,-6.227785E-2,-7.1000314E-1,8.853827E-2,4.186464E-1,1.6871208E0,-3.8557842E-1,9.8763056E-2,4.3579534E-2,7.858583E-1,8.0054873E-1,-1.0945808E-1,1.5892674E-1,1.022554E0,-9.889195E-2,-1.5597216E-2,-8.365897E-2,9.42901E-2,-8.429875E-2,7.0095375E-2,-3.441604E-2,1.259627E-1,-1.2002423E-2,2.3711725E-1,-1.0029012E-1,-1.6509127E-2,-3.810257E-2,7.961231E-2,9.758768E-2,4.6297513E-2,8.6524814E-2,-2.0377962E-2,-8.6087346E-2,7.3630154E-2,-5.2872848E-2,6.417694E-2,6.218149E-2,1.07436314E-1],"categories":[],"categories_nodes":[],"categories_segments":[],"categories_sizes":[],"default_left":[0,0,0,0,0,0,0,0,0,0,0,0,0,0,0,0,0,0,0,0,0,0,0,0,0,0,0,0,0,0,0,0,0,0,0,0,0,0,0,0,0,0,0,0,0,0,0,0,0,0,0,0,0,0,0],"id":34,"left_children":[1,3,-1,5,7,9,11,13,15,-1,17,19,21,23,25,27,29,31,33,35,-1,37,39,41,-1,43,45,47,49,51,53,-1,-1,-1,-1,-1,-1,-1,-1,-1,-1,-1,-1,-1,-1,-1,-1,-1,-1,-1,-1,-1,-1,-1,-1],"loss_changes":[1.5830068E3,3.5953497E2,0E0,9.251758E1,8.7353424E1,4.8187256E1,3.2756065E1,6.3538208E1,2.3179321E0,0E0,2.9742188E1,1.0532466E1,1.3982185E1,4.0491093E1,5.0690384E0,3.7184792E0,1.73172E0,2.61156E1,3.133041E1,6.3697214E0,0E0,2.0822107E1,1.5992603E1,3.867356E1,0E0,4.021522E0,4.114582E0,1.4747305E0,4.768717E0,1.6006703E0,1.1614838E0,0E0,0E0,0E0,0E0,0E0,0E0,0E0,0E0,0E0,0E0,0E0,0E0,0E0,0E0,0E0,0E0,0E0,0E0,0E0,0E0,0E0,0E0,0E0,0E0],"parents":[2147483647,0,0,1,1,3,3,4,4,5,5,6,6,7,7,8,8,10,10,11,11,12,12,13,13,14,14,15,15,16,16,17,17,18,18,19,19,21,21,22,22,23,23,25,25,26,26,27,27,28,28,29,29,30,30],"right_children":[2,4,-1,6,8,10,12,14,16,-1,18,20,22,24,26,28,30,32,34,36,-1,38,40,42,-1,44,46,48,50,52,54,-1,-1,-1,-1,-1,-1,-1,-1,-1,-1,-1,-1,-1,-1,-1,-1,-1,-1,-1,-1,-1,-1,-1,-1],"split_conditions":[3.0618617E-1,1E0,1.0153717E-1,1E0,1E0,-1.62008E0,1E0,1E0,3E0,9.785068E-2,1E0,1E0,1.1E1,1E0,-2.2986692E-1,1.1E1,-9.2431766E-1,1E0,3.7E1,1E0,8.853827E-2,1E0,4.6897706E-1,-2.2976603E-1,9.8763056E-2,1E0,-2.0497833E-1,1.1347713E0,1E0,1E0,-2.2976603E-1,-9.889195E-2,-1.5597216E-2,-8.365897E-2,9.42901E-2,-8.429875E-2,7.0095375E-2,-3.441604E-2,1.259627E-1,-1.2002423E-2,2.3711725E-1,-1.0029012E-1,-1.6509127E-2,-3.810257E-2,7.961231E-2,9.758768E-2,4.6297513E-2,8.6524814E-2,-2.0377962E-2,-8.6087346E-2,7.3630154E-2,-5.2872848E-2,6.417694E-2,6.218149E-2,1.07436314E-1],"split_indices":[27,26,0,24,20,15,19,23,10,0,25,17,0,21,6,0,28,20,9,21,0,14,15,6,0,21,6,15,23,19,6,0,0,0,0,0,0,0,0,0,0,0,0,0,0,0,0,0,0,0,0,0,0,0,0],"split_type":[0,0,0,0,0,0,0,0,0,0,0,0,0,0,0,0,0,0,0,0,0,0,0,0,0,0,0,0,0,0,0,0,0,0,0,0,0,0,0,0,0,0,0,0,0,0,0,0,0,0,0,0,0,0,0],"sum_hessian":[2.7722834E3,1.7784073E3,9.938761E2,1.2733201E3,5.0508725E2,1.1971218E3,7.619817E1,3.906803E2,1.1440695E2,1.2589346E1,1.1845325E3,3.370889E1,4.248929E1,3.0661688E2,8.406342E1,2.4488165E1,8.9918785E1,1.1462922E3,3.8240303E1,2.9798204E1,3.9106853E0,3.0782402E1,1.1706885E1,2.8434738E2,2.2269508E1,1.0636256E1,7.342717E1,1.8981878E1,5.5062866E0,2.7989087E0,8.711988E1,1.1069016E3,3.939058E1,2.1695498E1,1.6544807E1,2.7599464E1,2.1987412E0,1.6451197E1,1.4331204E1,3.4409735E0,8.265912E0,7.3898056E1,2.1044933E2,7.115298E0,3.5209587E0,4.495092E1,2.847625E1,1.7963161E1,1.0187163E0,2.9063072E0,2.5999796E0,1.1153772E0,1.6835316E0,1.1462261E1,7.5657616E1],"tree_param":{"num_deleted":"0","num_feature":"29","num_nodes":"55","size_leaf_vector":"1"}},{"base_weights":[5.3671054E-3,-5.44042E-1,1.013685E-1,-7.6384985E-1,3.6570475E-1,-8.5550255E-1,2.5383952E-1,1.0208801E-1,9.492595E-1,-9.638742E-1,-3.7920576E-1,-2.4518035E-1,6.904021E-1,-9.968301E-2,7.4535024E-1,8.9042276E-1,1.4443784E0,-9.9011E-1,-2.917253E-1,-5.155882E-1,6.117118E-1,-4.587741E-1,9.314886E-2,9.298177E-2,1.4377016E0,2.7193737E-1,-5.6690615E-1,4.140021E-1,9.014811E-1,2.8945607E-1,9.1511434E-1,1.8583222E-1,6.9898084E-2,6.7839555E-2,-9.941091E-2,9.00144E-2,-7.3152475E-2,-6.087163E-2,1.0297563E-1,1.3694277E-1,-6.556446E-5,-6.9862135E-2,4.6115946E-2,-2.682159E-2,8.650907E-2,-4.958646E-2,1.6041626E-1,7.928042E-2,-3.4508776E-2,-7.238002E-2,8.979673E-2,-1.3585535E-2,9.338441E-2,4.25346E-2,9.808751E-2,6.652557E-2,-1.1578132E-2,9.254076E-2,2.508423E-3],"categories":[],"categories_nodes":[],"categories_segments":[],"categories_sizes":[],"default_left":[0,0,0,0,0,0,0,0,0,0,0,0,0,0,0,0,0,0,0,0,0,0,0,0,0,0,0,0,0,0,0,0,0,0,0,0,0,0,0,0,0,0,0,0,0,0,0,0,0,0,0,0,0,0,0,0,0,0,0],"id":35,"left_children":[1,3,-1,5,7,9,11,13,15,17,19,21,23,25,27,29,31,33,35,37,39,41,-1,43,45,47,49,51,53,55,57,-1,-1,-1,-1,-1,-1,-1,-1,-1,-1,-1,-1,-1,-1,-1,-1,-1,-1,-1,-1,-1,-1,-1,-1,-1,-1,-1,-1],"loss_changes":[1.4163148E3,3.312108E2,0E0,1.2456946E2,4.9548126E1,6.2776367E1,2.4333189E1,2.9071898E1,1.6357574E0,1.7272888E1,3.1180832E1,1.3620798E1,2.6396057E1,2.9836622E1,2.392662E0,1.104065E0,1.4921398E0,7.0668335E0,2.1012245E1,2.959711E1,1.3033879E1,1.0273128E1,0E0,9.7398815E0,9.270428E0,3.1092728E1,1.8130547E1,5.550022E0,9.2443085E-1,8.542201E-1,7.843704E-1,0E0,0E0,0E0,0E0,0E0,0E0,0E0,0E0,0E0,0E0,0E0,0E0,0E0,0E0,0E0,0E0,0E0,0E0,0E0,0E0,0E0,0E0,0E0,0E0,0E0,0E0,0E0,0E0],"parents":[2147483647,0,0,1,1,3,3,4,4,5,5,6,6,7,7,8,8,9,9,10,10,11,11,12,12,13,13,14,14,15,15,16,16,17,17,18,18,19,19,20,20,21,21,23,23,24,24,25,25,26,26,27,27,28,28,29,29,30,30],"right_children":[2,4,-1,6,8,10,12,14,16,18,20,22,24,26,28,30,32,34,36,38,40,42,-1,44,46,48,50,52,54,56,58,-1,-1,-1,-1,-1,-1,-1,-1,-1,-1,-1,-1,-1,-1,-1,-1,-1,-1,-1,-1,-1,-1,-1,-1,-1,-1,-1,-1],"split_conditions":[3.0618617E-1,1E0,1.013685E-1,1E0,1E0,1E0,1E0,1E0,4E0,1E0,1E0,1E0,1E1,7E0,1E0,-2.3086569E-1,3E0,-1.62471E0,-9.184204E-1,1E0,-8.981963E-1,1E0,9.314886E-2,1E0,-2.1009587E-1,-4.4155452E-1,1E0,1E0,1E0,-1.62008E0,5.5E1,1.8583222E-1,6.9898084E-2,6.7839555E-2,-9.941091E-2,9.00144E-2,-7.3152475E-2,-6.087163E-2,1.0297563E-1,1.3694277E-1,-6.556446E-5,-6.9862135E-2,4.6115946E-2,-2.682159E-2,8.650907E-2,-4.958646E-2,1.6041626E-1,7.928042E-2,-3.4508776E-2,-7.238002E-2,8.979673E-2,-1.3585535E-2,9.338441E-2,4.25346E-2,9.808751E-2,6.652557E-2,-1.1578132E-2,9.254076E-2,2.508423E-3],"split_indices":[27,14,0,24,24,26,19,23,8,23,25,22,0,0,26,6,3,15,28,17,28,23,0,23,6,28,21,20,13,15,9,0,0,0,0,0,0,0,0,0,0,0,0,0,0,0,0,0,0,0,0,0,0,0,0,0,0,0,0],"split_type":[0,0,0,0,0,0,0,0,0,0,0,0,0,0,0,0,0,0,0,0,0,0,0,0,0,0,0,0,0,0,0,0,0,0,0,0,0,0,0,0,0,0,0,0,0,0,0,0,0,0,0,0,0,0,0,0,0,0,0],"sum_hessian":[2.5546262E3,1.6539097E3,9.007166E2,1.3321931E3,3.2171658E2,1.2222748E3,1.09918236E2,2.2241647E2,9.9300125E1,9.9488513E2,2.2738966E2,5.1494736E1,5.84235E1,1.6995271E2,5.2463757E1,9.125444E1,8.045684E0,9.5705566E2,3.782948E1,2.0030138E2,2.7088291E1,4.409969E1,7.3950477E0,3.3092495E1,2.5331005E1,9.48939E1,7.505882E1,1.7972757E1,3.4491E1,4.103459E0,8.715098E1,4.2130027E0,3.8326812E0,1.8851192E0,9.551706E2,9.914413E0,2.7915064E1,1.8948822E2,1.0813152E1,1.1554719E1,1.5533572E1,3.5170525E1,8.929167E0,2.2990164E1,1.0102331E1,1.8510327E0,2.3479973E1,5.1302002E1,4.3591892E1,6.825439E1,6.8044343E0,9.093191E0,8.879566E0,5.8378944E0,2.8653105E1,1.7961462E0,2.3073127E0,8.6115295E1,1.035681E0],"tree_param":{"num_deleted":"0","num_feature":"29","num_nodes":"59","size_leaf_vector":"1"}},{"base_weights":[5.749714E-3,-5.276126E-1,1.0121428E-1,-8.175308E-1,1.4593549E-1,-8.925234E-1,2.027872E-1,-6.415394E-2,8.9226717E-1,-9.1349775E-1,1.0376437E-1,-4.4137192E-1,6.6317457E-1,-1.9496498E-1,9.9833444E-2,9.2829937E-1,2.0255618E-1,-9.6576315E-1,-3.6320662E-1,-9.0522754E-1,3.550745E-1,1.2099851E0,2.6185235E-1,-4.1201505E-1,5.023796E-1,4.1877475E-1,9.753538E-1,-5.5390906E-1,7.682698E-2,-9.872101E-2,-2.7780423E-2,1.8629739E-2,-9.6731566E-2,-9.446474E-2,-3.9047223E-2,-4.0006302E-2,5.5970605E-2,4.4119075E-2,1.8919317E-1,-1.6845006E-2,9.953606E-2,-5.2260894E-2,1.0479423E-1,-3.4253716E-2,9.8204136E-2,-1.4827817E-2,9.0277605E-2,1.0721227E-2,9.970102E-2,-5.2104524E-4,-8.129793E-2],"categories":[],"categories_nodes":[],"categories_segments":[],"categories_sizes":[],"default_left":[0,0,0,0,0,0,0,0,0,0,0,0,0,0,0,0,0,0,0,0,0,0,0,0,0,0,0,0,0,0,0,0,0,0,0,0,0,0,0,0,0,0,0,0,0,0,0,0,0,0,0],"id":36,"left_children":[1,3,-1,5,7,9,11,13,15,17,-1,19,21,23,-1,25,27,29,31,33,35,37,39,41,43,45,47,49,-1,-1,-1,-1,-1,-1,-1,-1,-1,-1,-1,-1,-1,-1,-1,-1,-1,-1,-1,-1,-1,-1,-1],"loss_changes":[1.2663138E3,3.0122116E2,0E0,8.267383E1,7.294219E1,4.161316E1,2.2425087E1,5.0738525E1,2.3511887E0,2.8243958E1,0E0,1.2035098E1,9.321899E0,4.9343338E1,0E0,1.9129028E0,3.1438124E0,1.3113647E1,2.9339676E1,4.344368E-2,2.1381762E0,8.767578E0,8.565801E0,4.061063E1,3.174891E1,2.8613868E0,1.5454102E0,4.6469724E-1,0E0,0E0,0E0,0E0,0E0,0E0,0E0,0E0,0E0,0E0,0E0,0E0,0E0,0E0,0E0,0E0,0E0,0E0,0E0,0E0,0E0,0E0,0E0],"parents":[2147483647,0,0,1,1,3,3,4,4,5,5,6,6,7,7,8,8,9,9,11,11,12,12,13,13,15,15,16,16,17,17,18,18,19,19,20,20,21,21,22,22,23,23,24,24,25,25,26,26,27,27],"right_children":[2,4,-1,6,8,10,12,14,16,18,-1,20,22,24,-1,26,28,30,32,34,36,38,40,42,44,46,48,50,-1,-1,-1,-1,-1,-1,-1,-1,-1,-1,-1,-1,-1,-1,-1,-1,-1,-1,-1,-1,-1,-1,-1],"split_conditions":[3.0618617E-1,1E0,1.0121428E-1,1E0,1E0,1E0,1E0,1E0,1.3E1,1E0,1.0376437E-1,1E0,-9.099742E-1,7E0,9.9833444E-2,-9.1935325E-1,1E0,1E0,-4.4155452E-1,1E0,4E0,6E0,1E0,1E0,2.0268023E-2,1E0,1E0,2.4E1,7.682698E-2,-9.872101E-2,-2.7780423E-2,1.8629739E-2,-9.6731566E-2,-9.446474E-2,-3.9047223E-2,-4.0006302E-2,5.5970605E-2,4.4119075E-2,1.8919317E-1,-1.6845006E-2,9.953606E-2,-5.2260894E-2,1.0479423E-1,-3.4253716E-2,9.8204136E-2,-1.4827817E-2,9.0277605E-2,1.0721227E-2,9.970102E-2,-5.2104524E-4,-8.129793E-2],"split_indices":[27,26,0,23,20,17,19,21,0,14,0,14,28,7,0,28,14,20,28,24,13,10,24,17,27,23,10,9,0,0,0,0,0,0,0,0,0,0,0,0,0,0,0,0,0,0,0,0,0,0,0],"split_type":[0,0,0,0,0,0,0,0,0,0,0,0,0,0,0,0,0,0,0,0,0,0,0,0,0,0,0,0,0,0,0,0,0,0,0,0,0,0,0,0,0,0,0,0,0,0,0,0,0,0,0],"sum_hessian":[2.3571328E3,1.5409465E3,8.1618616E2,1.0771084E3,4.6383817E2,1.00347876E3,7.3629684E1,3.626638E2,1.01174385E2,9.9321265E2,1.0266103E1,3.0706896E1,4.2922794E1,3.236351E2,3.902868E1,9.5822464E1,5.3519263E0,9.0637244E2,8.68402E1,1.9318872E1,1.1388022E1,1.7315304E1,2.5607489E1,2.471258E2,7.65093E1,8.937992E0,8.688447E1,2.2988286E0,3.053098E0,8.785489E2,2.7823559E1,4.5837524E1,4.1002678E1,1.716894E1,2.1499333E0,2.2244072E0,9.163615E0,8.9135475E0,8.401756E0,1.662501E1,8.98248E0,2.3032071E2,1.6805086E1,2.7809385E1,4.8699917E1,4.4352827E0,4.5027094E0,2.2594702E0,8.4625E1,1.0644611E0,1.2343674E0],"tree_param":{"num_deleted":"0","num_feature":"29","num_nodes":"51","size_leaf_vector":"1"}},{"base_weights":[5.9590796E-3,-5.1191133E-1,1.01072766E-1,-8.037102E-1,1.3885012E-1,-8.811287E-1,1.8964326E-1,-5.879865E-2,8.849286E-1,-9.4940895E-1,-2.4619684E-1,-4.25579E-1,6.0948944E-1,-1.8956378E-1,9.9671505E-2,2.636444E-1,9.571202E-1,-9.8143166E-1,-2.726661E-1,3.9850396E-1,-6.720934E-1,-8.876619E-1,3.2789946E-1,2.6224726E-1,1.1666846E0,-8.894912E-1,4.4133705E-3,-1.5980138E-1,7.519214E-2,-3.7905633E-2,9.9285793E-1,6.6575006E-2,-9.860083E-2,-6.005743E-2,9.3829386E-2,3.753487E-3,3.073255E-1,-8.328677E-2,3.161658E-2,-9.236028E-2,-2.9357871E-2,8.710821E-2,6.103077E-4,-1.2476756E-2,1.1169769E-1,-1.9027872E-2,1.556453E-1,7.20342E-2,-9.4396494E-2,-6.73338E-2,2.7790597E-2,-6.0356863E-2,7.0656925E-2,1.0696825E-1,4.4086855E-2],"categories":[],"categories_nodes":[],"categories_segments":[],"categories_sizes":[],"default_left":[0,0,0,0,0,0,0,0,0,0,0,0,0,0,0,0,0,0,0,0,0,0,0,0,0,0,0,0,0,0,0,0,0,0,0,0,0,0,0,0,0,0,0,0,0,0,0,0,0,0,0,0,0,0,0],"id":37,"left_children":[1,3,-1,5,7,9,11,13,15,17,19,21,23,25,-1,27,29,31,33,35,37,39,41,43,45,47,49,51,-1,-1,53,-1,-1,-1,-1,-1,-1,-1,-1,-1,-1,-1,-1,-1,-1,-1,-1,-1,-1,-1,-1,-1,-1,-1,-1],"loss_changes":[1.1328846E3,2.7293106E2,0E0,7.6462036E1,6.5765564E1,3.9674255E1,1.8999443E1,4.894454E1,3.93647E0,1.7736755E1,2.518044E1,1.0742224E1,8.117155E0,4.279062E1,0E0,2.415692E0,4.35363E0,6.633545E0,1.60184E1,3.53396E1,9.003599E0,1.3189888E-1,2.116872E0,9.438001E0,8.982986E0,6.677387E0,4.611018E1,3.0295737E0,0E0,0E0,2.9801483E0,0E0,0E0,0E0,0E0,0E0,0E0,0E0,0E0,0E0,0E0,0E0,0E0,0E0,0E0,0E0,0E0,0E0,0E0,0E0,0E0,0E0,0E0,0E0,0E0],"parents":[2147483647,0,0,1,1,3,3,4,4,5,5,6,6,7,7,8,8,9,9,10,10,11,11,12,12,13,13,15,15,16,16,17,17,18,18,19,19,20,20,21,21,22,22,23,23,24,24,25,25,26,26,27,27,30,30],"right_children":[2,4,-1,6,8,10,12,14,16,18,20,22,24,26,-1,28,30,32,34,36,38,40,42,44,46,48,50,52,-1,-1,54,-1,-1,-1,-1,-1,-1,-1,-1,-1,-1,-1,-1,-1,-1,-1,-1,-1,-1,-1,-1,-1,-1,-1,-1],"split_conditions":[3.0618617E-1,1E0,1.01072766E-1,1E0,1E0,1E0,1E0,1E0,-2.2976603E-1,1E0,-6.301855E-1,1E0,3E0,-2.2983982E-1,9.9671505E-2,1E0,1E0,-1.62471E0,1.2E1,-6.8389356E-1,1.4616495E0,1E0,-2.317284E-1,1E0,-6.225E0,-1.62008E0,3E0,1E0,7.519214E-2,-3.7905633E-2,6E0,6.6575006E-2,-9.860083E-2,-6.005743E-2,9.3829386E-2,3.753487E-3,3.073255E-1,-8.328677E-2,3.161658E-2,-9.236028E-2,-2.9357871E-2,8.710821E-2,6.103077E-4,-1.2476756E-2,1.1169769E-1,-1.9027872E-2,1.556453E-1,7.20342E-2,-9.4396494E-2,-6.73338E-2,2.7790597E-2,-6.0356863E-2,7.0656925E-2,1.0696825E-1,4.4086855E-2],"split_indices":[27,26,0,23,25,14,19,21,6,24,15,14,12,6,0,14,10,15,0,15,15,20,6,24,4,15,10,20,0,0,10,0,0,0,0,0,0,0,0,0,0,0,0,0,0,0,0,0,0,0,0,0,0,0,0],"split_type":[0,0,0,0,0,0,0,0,0,0,0,0,0,0,0,0,0,0,0,0,0,0,0,0,0,0,0,0,0,0,0,0,0,0,0,0,0,0,0,0,0,0,0,0,0,0,0,0,0,0,0,0,0,0,0],"sum_hessian":[2.1752065E3,1.4357126E3,7.3949396E2,9.910809E2,4.446318E2,9.19529E2,7.155188E1,3.5223895E2,9.239285E1,8.297977E2,8.9731255E1,2.9017454E1,4.2534428E1,3.1414114E2,3.809781E1,1.0102471E1,8.2290375E1,7.918768E2,3.792097E1,3.5721764E1,5.400949E1,1.7876387E1,1.1141068E1,2.7110138E1,1.542429E1,6.739052E1,2.4675064E2,5.7707014E0,4.3317704E0,1.8933802E0,8.0396996E1,1.7938218E0,7.9008295E2,3.0237265E1,7.6837077E0,3.2367645E1,3.3541188E0,4.6587646E1,7.4218435E0,1.6333565E1,1.5428206E0,3.509761E0,7.631307E0,1.9248566E1,7.8615727E0,3.556005E0,1.1868284E1,1.8056432E0,6.558488E1,7.052305E1,1.7622758E2,4.016652E0,1.7540493E0,6.975131E1,1.0645687E1],"tree_param":{"num_deleted":"0","num_feature":"29","num_nodes":"55","size_leaf_vector":"1"}},{"base_weights":[6.1233127E-3,-4.946204E-1,1.00942515E-1,-7.181097E-1,3.3198693E-1,-8.181105E-1,2.5179356E-1,9.1096506E-2,9.164366E-1,-9.4393325E-1,-3.511928E-1,-2.1849632E-1,6.439454E-1,-4.2004175E-2,9.9722125E-2,8.520046E-1,1.3883168E0,-9.766344E-1,-2.5693876E-1,-4.8386157E-1,5.5416846E-1,-4.1861373E-1,9.0864114E-2,8.919363E-2,1.2909425E0,4.6616048E-1,-3.104422E-1,5.5461454E-1,9.2154795E-1,1.7161396E-1,6.541747E-2,6.4936765E-2,-9.813496E-2,-7.3274285E-2,6.005144E-2,-5.602144E-2,1.00105464E-1,-5.360274E-3,1.1382456E-1,-5.814562E-2,8.721543E-2,-1.9385563E-2,8.948669E-2,3.8353186E-2,1.6766791E-1,7.379332E-2,-5.7865668E-2,-4.5299616E-2,9.401929E-2,5.0146612E-3,9.087025E-2,1.40093835E-2,9.329715E-2],"categories":[],"categories_nodes":[],"categories_segments":[],"categories_sizes":[],"default_left":[0,0,0,0,0,0,0,0,0,0,0,0,0,0,0,0,0,0,0,0,0,0,0,0,0,0,0,0,0,0,0,0,0,0,0,0,0,0,0,0,0,0,0,0,0,0,0,0,0,0,0,0,0],"id":38,"left_children":[1,3,-1,5,7,9,11,13,15,17,19,21,23,25,-1,27,29,31,33,35,37,39,-1,41,43,45,47,49,51,-1,-1,-1,-1,-1,-1,-1,-1,-1,-1,-1,-1,-1,-1,-1,-1,-1,-1,-1,-1,-1,-1,-1,-1],"loss_changes":[1.0124687E3,2.4858817E2,0E0,1.02875E2,4.0293953E1,5.60578E1,1.8528492E1,2.4669506E1,1.3588104E0,1.672174E1,2.4932161E1,1.0774553E1,1.9489809E1,2.4563005E1,0E0,1.0636177E0,9.1207886E-1,6.163574E0,1.4998739E1,2.0926773E1,9.54276E0,8.876607E0,0E0,7.124611E0,8.156559E0,1.8109964E1,2.1415401E1,2.9807615E0,4.0669632E-1,0E0,0E0,0E0,0E0,0E0,0E0,0E0,0E0,0E0,0E0,0E0,0E0,0E0,0E0,0E0,0E0,0E0,0E0,0E0,0E0,0E0,0E0,0E0,0E0],"parents":[2147483647,0,0,1,1,3,3,4,4,5,5,6,6,7,7,8,8,9,9,10,10,11,11,12,12,13,13,15,15,16,16,17,17,18,18,19,19,20,20,21,21,23,23,24,24,25,25,26,26,27,27,28,28],"right_children":[2,4,-1,6,8,10,12,14,16,18,20,22,24,26,-1,28,30,32,34,36,38,40,-1,42,44,46,48,50,52,-1,-1,-1,-1,-1,-1,-1,-1,-1,-1,-1,-1,-1,-1,-1,-1,-1,-1,-1,-1,-1,-1,-1,-1],"split_conditions":[3.0618617E-1,1E0,1.00942515E-1,1E0,1E0,1E0,1E0,1E0,4E0,1E0,1E0,1E0,1E1,-9.0540963E-1,9.9722125E-2,1E0,3E0,-1.62471E0,3E0,1E0,9E0,1E0,9.0864114E-2,1E0,-8.70963E-2,-6.178E0,1E0,1E0,-2.314767E-1,1.7161396E-1,6.541747E-2,6.4936765E-2,-9.813496E-2,-7.3274285E-2,6.005144E-2,-5.602144E-2,1.00105464E-1,-5.360274E-3,1.1382456E-1,-5.814562E-2,8.721543E-2,-1.9385563E-2,8.948669E-2,3.8353186E-2,1.6766791E-1,7.379332E-2,-5.7865668E-2,-4.5299616E-2,9.401929E-2,5.0146612E-3,9.087025E-2,1.40093835E-2,9.329715E-2],"split_indices":[27,14,0,24,24,26,19,22,8,23,20,22,0,28,0,26,3,15,12,17,13,17,0,21,6,1,21,23,6,0,0,0,0,0,0,0,0,0,0,0,0,0,0,0,0,0,0,0,0,0,0,0,0],"split_type":[0,0,0,0,0,0,0,0,0,0,0,0,0,0,0,0,0,0,0,0,0,0,0,0,0,0,0,0,0,0,0,0,0,0,0,0,0,0,0,0,0,0,0,0,0,0,0,0,0,0,0,0,0],"sum_hessian":[2.0132819E3,1.3433357E3,6.6994617E2,1.0575404E3,2.857953E2,9.5883704E2,9.870334E1,2.0319926E2,8.2596016E1,7.544972E2,2.0433987E2,4.5081715E1,5.3621628E1,1.7800566E2,2.519361E1,7.514152E1,7.4545054E0,7.1981226E2,3.4684902E1,1.7862962E2,2.5710257E1,3.881833E1,6.2633877E0,2.9481392E1,2.4140234E1,6.127427E1,1.16731384E2,1.5942271E1,5.919924E1,4.228641E0,3.2258642E0,1.6859809E0,7.181263E2,2.240032E1,1.2284581E1,1.7048613E2,8.143489E0,1.3044653E1,1.2665605E1,3.4957623E1,3.8607035E0,2.2378693E1,7.102699E0,7.7957397E0,1.6344494E1,4.885902E1,1.241525E1,1.0535972E2,1.1371667E1,7.0457854E0,8.896486E0,1.0440255E0,5.8155216E1],"tree_param":{"num_deleted":"0","num_feature":"29","num_nodes":"53","size_leaf_vector":"1"}},{"base_weights":[6.684213E-3,-4.774832E-1,1.0082209E-1,-7.7482533E-1,1.3125014E-1,-8.839287E-1,-5.055403E-2,-5.2742183E-2,8.61705E-1,-9.082224E-1,9.239134E-2,4.7755596E-1,-4.5126662E-1,-1.6931121E-1,9.895567E-2,-3.7097238E-2,8.937591E-1,-9.444173E-1,-6.6487747E-3,3.21515E-1,3.8918543E-1,-6.998807E-1,7.183977E-1,-8.703549E-1,9.508027E-3,9.8771095E-1,3.1639966E-1,-9.781776E-2,1.2306006E-3,-4.3928757E-2,2.0243363E-1,6.8885437E-3,1.20761134E-1,-8.718737E-2,2.829962E-2,9.298155E-2,-6.453546E-2,6.748604E-2,-9.230316E-2,-6.278943E-2,2.5583362E-2,-1.0081978E-2,1.0284839E-1,-3.5810385E-2,8.2745574E-2],"categories":[],"categories_nodes":[],"categories_segments":[],"categories_sizes":[],"default_left":[0,0,0,0,0,0,0,0,0,0,0,0,0,0,0,0,0,0,0,0,0,0,0,0,0,0,0,0,0,0,0,0,0,0,0,0,0,0,0,0,0,0,0,0,0],"id":39,"left_children":[1,3,-1,5,7,9,11,13,15,17,-1,19,21,23,-1,-1,25,27,29,31,-1,33,35,37,39,41,43,-1,-1,-1,-1,-1,-1,-1,-1,-1,-1,-1,-1,-1,-1,-1,-1,-1,-1],"loss_changes":[9.045214E2,2.2770462E2,0E0,6.672363E1,5.5620316E1,3.3087646E1,2.3849167E1,4.0414467E1,3.6212845E0,2.3653442E1,0E0,2.4676851E1,1.9117432E1,3.746397E1,0E0,0E0,4.105194E0,2.2526123E1,2.6363468E1,1.0578923E1,0E0,9.256729E0,3.9775982E0,5.5665092E0,3.7693584E1,3.1914902E0,4.7324705E0,0E0,0E0,0E0,0E0,0E0,0E0,0E0,0E0,0E0,0E0,0E0,0E0,0E0,0E0,0E0,0E0,0E0,0E0],"parents":[2147483647,0,0,1,1,3,3,4,4,5,5,6,6,7,7,8,8,9,9,11,11,12,12,13,13,16,16,17,17,18,18,19,19,21,21,22,22,23,23,24,24,25,25,26,26],"right_children":[2,4,-1,6,8,10,12,14,16,18,-1,20,22,24,-1,-1,26,28,30,32,-1,34,36,38,40,42,44,-1,-1,-1,-1,-1,-1,-1,-1,-1,-1,-1,-1,-1,-1,-1,-1,-1,-1],"split_conditions":[3.0618617E-1,1E0,1.0082209E-1,1E0,1E0,1E0,-6.301855E-1,1E0,1E0,1E0,9.239134E-2,-6.561135E-1,1E0,-2.2983982E-1,9.895567E-2,-3.7097238E-2,6E0,1E0,5.5E1,1E0,3.8918543E-1,1.4616495E0,4E0,-1.62008E0,3E0,-2.3142405E-1,1E0,-9.781776E-2,1.2306006E-3,-4.3928757E-2,2.0243363E-1,6.8885437E-3,1.20761134E-1,-8.718737E-2,2.829962E-2,9.298155E-2,-6.453546E-2,6.748604E-2,-9.230316E-2,-6.278943E-2,2.5583362E-2,-1.0081978E-2,1.0284839E-1,-3.5810385E-2,8.2745574E-2],"split_indices":[27,26,0,14,25,21,15,21,10,20,0,15,20,6,0,0,10,25,9,25,0,15,11,15,10,6,14,0,0,0,0,0,0,0,0,0,0,0,0,0,0,0,0,0,0],"split_type":[0,0,0,0,0,0,0,0,0,0,0,0,0,0,0,0,0,0,0,0,0,0,0,0,0,0,0,0,0,0,0,0,0,0,0,0,0,0,0,0,0,0,0,0,0],"sum_hessian":[1.8633405E3,1.2564601E3,6.068804E2,8.439507E2,4.1250934E2,7.332712E2,1.1067955E2,3.3025107E2,8.225827E1,7.240392E2,9.231948E0,4.7666634E1,6.3012917E1,2.9778485E2,3.246622E1,1.8168237E0,8.0441444E1,6.9604785E2,2.7991346E1,4.6629723E1,1.0369139E0,5.2298435E1,1.071448E1,5.9734444E1,2.380504E2,6.8572174E1,1.1869276E1,6.7230164E2,2.3746212E1,2.3721846E1,4.2695007E0,3.7123425E1,9.506295E0,4.4605827E1,7.692607E0,9.551879E0,1.1626015E0,1.5798482E0,5.8154594E1,6.592113E1,1.7212927E2,2.4225893E0,6.614958E1,5.2454705E0,6.6238055E0],"tree_param":{"num_deleted":"0","num_feature":"29","num_nodes":"45","size_leaf_vector":"1"}},{"base_weights":[6.932213E-3,-4.5988685E-1,1.0071025E-1,-7.5828046E-1,1.226778E-1,-8.4407055E-1,2.3853576E-1,-8.147116E-2,7.6313496E-1,-9.280745E-1,-2.3985015E-1,-3.9491478E-1,6.66343E-1,-2.011661E-1,1.0259873E-1,8.3885974E-1,2.119443E-1,-9.669871E-1,-1.893241E-1,-3.8157105E-1,1.1970835E0,-6.22971E-1,8.540296E-2,1.3437316E0,2.0143044E-1,-8.002073E-1,1.0791189E-2,9.1708267E-1,1.871885E-1,-3.710758E-1,7.8954095E-1,-9.7241245E-2,6.824478E-2,7.545357E-2,-6.35126E-2,9.1114685E-2,-5.0435375E-2,-6.2445354E-2,3.61597E-1,-7.8410365E-2,6.8005376E-2,8.988585E-2,3.5690734E-1,-1.6752897E-2,9.032182E-2,-8.174971E-3,-1.0637597E-1,4.5549057E-2,-3.741589E-2,1.0454829E-2,9.5920935E-2,-3.0294437E-2,8.057029E-2,5.409503E-2,-8.59257E-2,9.011542E-2,8.904471E-3],"categories":[],"categories_nodes":[],"categories_segments":[],"categories_sizes":[],"default_left":[0,0,0,0,0,0,0,0,0,0,0,0,0,0,0,0,0,0,0,0,0,0,0,0,0,0,0,0,0,0,0,0,0,0,0,0,0,0,0,0,0,0,0,0,0,0,0,0,0,0,0,0,0,0,0,0,0],"id":40,"left_children":[1,3,-1,5,7,9,11,13,15,17,19,21,23,25,-1,27,29,31,33,35,37,39,-1,41,43,45,47,49,51,53,55,-1,-1,-1,-1,-1,-1,-1,-1,-1,-1,-1,-1,-1,-1,-1,-1,-1,-1,-1,-1,-1,-1,-1,-1,-1,-1],"loss_changes":[8.080283E2,2.0520378E2,0E0,6.693939E1,5.242952E1,3.626068E1,1.7233454E1,4.0585106E1,3.866932E0,1.794751E1,1.8597866E1,7.9010777E0,1.1617971E1,3.5019417E1,0E0,4.1542435E0,4.685299E0,6.0230713E0,1.4281644E1,1.3450046E1,